solver_type L2R_L2LOSS_SVC_DUAL
nr_class 10
label 1 2 3 4 5 6 7 8 9 10
nr_feature 880
bias -1
w
-0.1263385358951702 -0.002026931420531331 0.08166060372554307 0.04214167512221048 0.02373613634574145 0.01900820618682573 -0.07556783070223883 -0.01421006628821701 0.02872538058275326 -0.01360941667774842 
0.05266072144140166 -0.02270932031183041 -0.03934650946594997 0.009399002411023148 0.01460394050764902 0.02172960092995919 -0.09065986122199335 0.008570172037693984 0.1085034947416434 0.07750361576516077 
0.05904651218836209 0.1527631378828442 0.01405856859343983 -0.01537633272158763 -0.06536070550596673 0.01810305464765146 -0.02115359658850914 -0.02047842832210649 -0.1217907416634328 0.01498256076405515 
0.04800015961137851 -0.08979202335661073 0.02060212383386709 0.03301850549319246 0.04412194164412683 -0.01907511933459793 -0.01660666574456855 0.006733893640094374 0.03855661895162306 0.009077206748481286 
0 0 0 0 0 0 0 0 0 0 
-0.08419632878244149 -0.0448547194818223 0.07641782923621333 0.008901387648198828 0.03282838535488779 -0.01648926279531217 0.04480750659044432 -0.002167048159538815 -0.007378790607891467 -0.0003406452679831097 
-0.05986963537860902 0.08194573963859902 0.06889333787315911 0.03019041360801535 -0.1852767772760091 -0.03115108699256468 -0.08734243335984089 -0.0556430447017267 -0.01289579343029634 0.09222505002400408 
0.02863254986454275 -0.07377853292157881 0.01169968304567336 -0.005765441705763021 -0.04196600264641986 0.05441850117027155 -0.03192474686865266 0.01700825530588986 -0.03003731977512281 0.008465251585803565 
0.02556079725852676 -0.036488216292959 -0.007531047432258178 0.01788400686308078 0.04117501085016433 -0.004952905144275874 -0.04674075756869318 -0.0251216657940603 -0.02104895595827694 0.01394682360244502 
0.0260196846031081 -0.04182739087741949 -0.008337973886071329 -0.003970895668258193 0.002818061587804241 0.00476971165704528 -0.01396999568633423 -0.01179145017723444 0.0003191252755316479 -0.006021266656754765 
0.03344343844079002 -0.03779063437110302 -0.04490410504242407 -0.02257322704360706 -0.0182861533251904 0.01688714150734134 0.007464209174602895 0.009743227994602345 -0.05004332168329486 0.01011950815683989 
0.07586710415284814 0.002300660043026021 0.005935891458848603 0.006348033837475918 0.1089321970480418 -0.02767156537465516 0.04284070306693522 -0.007871873573675409 -0.0670742840992567 -0.1198100716786053 
-0.0404105240281685 0.1297927923517265 -0.004980296858321534 -0.005627183604874131 -0.1135844497932627 -0.05409859636792567 -0.01306438490236218 -0.0028323132646804 0.108786631946804 -0.03844592370710075 
0.03165289734784756 0.09454951479923147 -0.03052684970351184 -0.01735736955175237 -0.002369524882011514 0.04479623678640077 -0.09548558306275888 -0.02639448968287215 -0.1383984064540099 0.1412201298874539 
0.03274866468401372 -0.04547438028899254 0.003125611535976857 0.0403173223917479 0.03897158211527419 -0.0701702172037723 0.009762683323306749 0.03002068169860313 -0.04324598568682868 -0.0266298571362615 
0 0 0 0 0 0 0 0 0 0 
0.02479266293340041 -0.0225381454766315 0.03838447995896353 0.01455795169264786 -0.02086320819295516 -0.04418862387626583 0.05239478432261888 0.005827952706135862 -0.1052189382597157 0.0180984207570254 
0.03973243180129062 0.03293737847428412 -0.05574914965421952 -0.01518495438964982 0.0197829790571126 0.02335597820680231 -0.0920461064993397 -0.09506729401778775 -0.1043606713622287 -0.03556930089740751 
-0.003893164697628871 -0.006252105422283854 -0.016748525713806 0.007536149656526137 0.1039324394612923 -0.0135419268470414 0.01653181729584121 -0.03269670305279512 -0.004105589412879892 -0.04592426107678814 
-0.00624639805221104 0.03619678447391046 -0.002868378982548376 0.00716258901240853 0.004406748949421609 -0.02311558951908957 -0.06783798198765703 -0.02133198959432557 -0.005185803558306028 0.03284386368341204 
0.006710557810770327 -0.006091578004294849 0.01920721336860581 -0.00844480110472165 -0.0449447040294546 -0.02549707659808663 -0.03221611148314618 -0.01403151850037149 0.0192013762022021 0.02880855330021908 
-0.05258529569809106 0.008413904175857963 -0.01486207919911574 -0.01098752052274856 -0.04629723231386493 -0.009295466318022423 0.006286538614740414 0.02324059035479418 -0.01259999984244944 0.01478821787339613 
0.06566825491127569 -0.01374978878856158 -0.04841553152825206 -0.02167923399835544 -0.0009537400649860983 -0.06110528814114519 0.1176830873832786 -0.01923594516039426 -0.1311695134169442 -0.04620344900916783 
-0.01031433476754099 0.08236193031160187 0.001965946981824612 0.007218267826475422 -0.03145837063221182 -0.07582344915994586 0.002670167752834912 -0.02780263542238121 0.08585674116595846 -0.06834862974469018 
-0.04650971973457474 0.01950860443940265 0.04398304206244323 0.001098012091491257 -0.002613496512191613 0.02131624990810656 0.01184466267193027 -0.02896673860773577 -0.02636697492994155 -0.0634745024758413 
0.02605207577038448 0.05485190599290463 -0.09568765447976026 0.04246583788313605 0.1264563768681444 -0.1018209882214463 0.005672748640825316 0.01518877182830968 0.003658702149090956 -0.01180754422124175 
0 0 0 0 0 0 0 0 0 0 
0.01147194110349914 -0.03375409270865001 -0.01044958037491256 0.01852976294633531 -0.0132987625879936 0.03422822923956041 -0.03196112027033948 -0.07968963239796205 -0.1005637019020014 0.05165247340627337 
-0.008413399974291941 0.05945693101106356 0.05561509038391639 0.01753612200539003 -0.02975855423616581 0.04206284360270698 -0.05701859031517344 0.001215226022421009 -0.03566162587283266 -0.01190184289877161 
-0.02451692670116859 0.01169860753382835 -0.03234379711587886 0.01670540176750673 0.03444422036322987 -0.02568909049032377 -0.02141790977653026 0.02596144479938104 -0.02184652450061636 -0.009679604635639905 
-0.0112440311131957 0.05301985782090645 -0.00732828332607216 0.02050292327029017 0.02982788745362671 -0.01894488123075903 -0.08681819638687981 0.004612157071631758 -0.000543093181772488 0.01500308500808056 
0.02562309191952147 -0.01194660916034176 0.02835082854825829 0.002538285532693907 -0.01768499349545096 -0.0389872146127712 -0.03441823219303814 0.007703544132856381 0.01986228129934891 0.01436373723072718 
-0.05183777505341204 -0.002889392485812493 -0.02076007205935402 -0.006250730872562604 -0.01075561758906273 -0.01920298574910452 0.03177081249047061 0.04823904179421309 -0.03440364021118654 0.01578783680010218 
0.05968373205019815 0.1576964826874167 0.05024243123894325 -0.03634316667707498 -0.133278963250622 -0.01601204793242457 -0.001937053818299288 0.008119614919473939 -0.1377396328757562 -0.03275793608328675 
-0.01324843903328332 -0.1148427234264942 -0.001338127705025225 0.03830794659651925 -0.02328650581437858 -0.03352206810088583 -0.02835682666323989 -0.01690487730603098 0.08717335775435156 0.1124804166246087 
0.01069888758707985 0.007585074974531254 -0.005369757604528327 0.007206508283123922 -0.03592181367360538 0.02864142037530656 -0.1120168743500046 -0.01300370426180743 0.007226111963086531 0.003086937158382319 
0.03967833241533006 0.01694442469687805 -0.03145757226669318 0.0423536035952005 0.004479711422896718 -0.07778824302942072 0.03246118608741866 0.0181487437392974 -0.007116474990235373 -0.07421649574150378 
0 0 0 0 0 0 0 0 0 0 
-0.09089251660916874 0.09245719454694815 0.002226283084738137 0.01858391719851955 -0.1046743241295198 0.1122111704078834 -0.1259250385867799 0.002225746835895797 0.003304251016776325 0.08948898912434143 
0.0331038414698419 -0.0337216682367107 -0.02470220106844965 0.007809923290412143 0.01639999961672554 -0.03497383046728147 0.04470809758920381 0.008900368002725072 0.02504819968501443 0.0407395842243325 
0.03948072072413347 -0.03375129419065815 0.002035037355201184 -0.02171589313268189 -0.002711715639375311 -0.03686546529341221 0.008440317038096614 0.01821887576233059 -0.04788758341415088 0.09948439474124096 
0.0316313929725749 -0.01164333412887543 -0.02780345208898659 0.0008106789576856647 0.03867621976323212 -0.001731962704136245 -0.07753327726629064 -0.0163462306274315 0.002545793471622372 0.04438088328725862 
0.02563528131040877 -0.01836992851823523 -0.002698256738328887 -0.01878897994592283 0.004955694033479417 -0.004000408039089895 -0.007798397670050084 -4.307509539503037e-05 0.03425356132619106 -2.844439484088181e-05 
0.03301883002340783 -0.02004277481624967 -0.07942419694555738 -0.03651471312266136 -0.01307939107540935 0.004724852379949017 0.04844913409731482 0.03775346579688297 -0.02702131278699451 -0.02062952008515359 
0.01292388816813851 -0.07787213496281119 0.1601249209626776 0.01541091503563556 -0.06328667242999959 -0.01869137859100012 -0.02773160303557473 0.002518044409017749 -0.01696506376723805 -0.03815569124334389 
0.0625884946029573 -0.03059316135524637 -0.05856808729727213 -0.005196029254436322 0.05344089548115338 -0.01562686514286792 -0.03977201906924312 -0.02832097158440653 -0.03201938582133192 0.02169272201975872 
0.04607905331170861 0.122810390521799 -0.04047203077141186 -0.05105697855653029 0.06847527715645491 0.005128153423230115 0.04571069822644223 -0.0623767919627158 -0.08116118308511834 -0.0440924833526916 
-0.0279859148016175 -0.07426497722045032 0.07332224780028469 -0.008068098510942283 -0.08543080114882326 -0.02252145218961643 -0.1100526033066012 -0.04018716319903524 0.06152401972154151 0.05101841486893335 
0 0 0 0 0 0 0 0 0 0 
0.02074727141756633 -0.09161639234486477 -0.02546888051772192 0.007678616976861162 -0.006042411767459993 0.03532095231841616 -0.01937387360657941 0.01909122144746523 -0.02957572235627304 0.009213599760216145 
0.06959915554142566 0.05445179312025376 -0.03847331818517174 -0.009267890975154852 -0.1593060661802013 -0.03319769350523006 0.02222714074833695 -0.02477299456193766 -0.0103028873812224 0.01392077877864185 
-0.01830594577870203 -0.1003326073218362 -0.0609043317886935 0.02149041580946671 -0.01358810919581991 0.0275878334060554 -0.06808224344255107 0.006428436446390415 -0.03072990598201251 0.1080578787231202 
0.02300680955831645 0.001475735264639754 0.008722522812614899 0.009130753071803515 -0.008093125954251818 0.009276294592900171 -0.05603759511719014 -0.009486495340992373 0.005873448476838359 -0.02855395042093525 
0.04750236099718842 -0.011973692187775 -0.01355885274227386 -0.007122983516697812 -0.02736085316654559 0.01712100043467291 -0.04515429416881581 0.008401145934858936 0.02462878380076594 -0.0272076517566638 
0.008929439111261062 -0.006842673156889752 -6.503804571832405e-06 -0.008585232431109124 -0.04784174788929427 0.01869458814224541 -0.03697300781584384 0.03247939577226678 -0.01922617465364783 -0.05597648549734049 
0.1595570081039272 -0.04447387549643324 0.0802487981442475 -0.05521206416549905 -0.001853982903203862 -0.09401227345908737 -0.09758045028052774 0.00994916837415331 -0.03346179946416466 -0.05742881391355631 
0.005311125525626431 -0.04833574450755201 0.003407374380813348 0.05878684909596233 -0.1224942036103216 0.0273310225565975 0.03111859225172522 -0.08424651987170473 -0.06449295096452602 0.02177267861381866 
0.01293059600538928 -0.007044729047502299 -0.1564758960273591 -0.01984041597986257 -0.03477392884074058 -0.05062938145340681 0.03773939925978017 -0.06434522974692927 0.02879010185599546 0.01572301709331637 
-0.06715698711570192 0.02062488708719718 0.07508606011043199 -0.01616316781090775 0.05885274448713358 -0.115878898566917 -0.1257101538085608 0.0504042513970876 -0.02776342320249169 -0.004204199825143228 
0 0 0 0 0 0 0 0 0 0 
0.1273904795011592 -0.0537803157578112 0.1051199594082676 0.0349491921606354 -0.07913649447365742 0.04347832288647029 -0.049018320434 -0.05502016040387315 -0.03052507234535811 -0.04351704474369424 
-0.03881304301829557 -0.04286194861913078 -0.08070831493343993 -0.007879744916745247 -0.03930856005963369 -0.005619540947914752 0.07627149726555589 -0.06734456040610427 -0.05275928893195335 0.03636621800391315 
-0.05200471698419431 -0.03608840685914343 -0.01844317444263644 -0.01297686738945368 0.1069502441699726 -0.02928825338791217 -0.02689967066522581 0.0162555457538966 -0.05273746971472387 -0.02195118422842046 
-0.07546301906054761 0.01412163004011227 0.03596897521736699 0.003745853107915818 -0.03059426686641078 0.01170351254792112 -0.05749280308245099 -0.002610364649126553 -0.01223018217014532 0.003068593270846081 
0.03852469794323674 -0.03815552375363056 -0.01282949267512944 -0.003660072072934186 -0.04220019228631485 0.002153773656383919 -0.04313201220804391 -0.009330914310320251 0.01105097552473456 0.03716258584937137 
-0.1291991768787737 -0.0009323027921319806 -0.02840084077616302 0.01546353419723696 -0.0125422303777863 0.01128154742504353 -0.02848057458550289 0.04719312156910888 -0.01147426519082854 -0.009149134960357982 
0.03620959426471432 -0.04470313510911165 -0.02795651287184693 -0.05349135961656203 0.02548072089204852 -0.04293093486573219 -0.05365278741101555 0.04159407396434243 -0.03857943697398483 0.01091069156793673 
0.04768649273093596 -0.01857146646776612 -0.02989953170888415 0.05590289508744528 -0.06999520568380493 0.0670436225159316 -0.02883320252216965 -0.142563737570001 -0.05604050629217317 -0.03818446499189206 
0.09137457006458009 0.009868926457722539 0.0303598354744196 -0.03975736553532928 -0.001643454099244878 -0.007726669106980208 0.0445303767159948 -0.04912252455123196 -0.006851145047828026 -0.1009265026725739 
-0.04021314135802193 -0.09963826122043329 -0.08675513606023226 -0.01319438136292345 0.06683528974019555 -0.04756115733026941 -0.01841255821209442 0.01215885378730323 -0.05750822114562754 0.06189671953989627 
0 0 0 0 0 0 0 0 0 0 
0.0299249658920232 -0.04665024051647144 -0.02720232079408886 0.03343254875737259 -0.05171906445371776 0.02386806024790505 -0.001571099541900578 -0.1134034511893347 0.01884468551138268 0.02124499528555788 
0.08302902788662532 0.03214096093026692 0.09433383692798136 -0.0240030152345138 -0.04790358339388938 -0.02831914002697642 0.06425319995118822 -0.05356475232407288 -0.02597417742907617 -0.07436043421668674 
-0.03745911486257902 -0.007999628185502398 -0.05033362282124394 0.01762973226031296 0.04188257974839817 -0.004949521060270585 -0.03898259714966159 0.04453170212937862 -0.03694673873761338 -0.04602599671154062 
-0.07794292630782688 0.004940337657471008 0.05431167084648232 -0.002696960269456373 0.01452388316272352 -0.01756443274790394 -0.04025466466854837 0.01217899706258599 0.02818367189333729 -0.02232410545144747 
0.04302208478905923 -0.03518590269448174 0.001541027469510042 -0.005575055397157817 0.006878068670429039 -0.04926045186201094 -0.01869844099022889 -0.001823117071341263 0.03067176639057837 0.03822308930705622 
-0.09822600588349298 0.01892684379786399 -0.0363218973288751 0.01521571566664498 0.02533973837817345 -0.05624954208874179 0.01300385001178473 0.04591365713401558 -0.01022345111002695 0.02660379324849737 
-0.0002136356827015906 0.0684200822542069 -0.04862159025369928 -0.05298456670081358 -0.1205992308779429 -0.01637254112841972 -0.0240674505284718 -0.03079917269249408 0.02094913963059262 -0.03419496910010569 
0.1248006489084926 -0.05280019358599962 -0.0336823310013676 0.05263704337286836 0.08614665763551616 -0.04987515903770243 -0.07797086323535121 -0.015631936117237 -0.05029283774526851 0.03284021422437555 
-0.1050272381042555 -0.1323129570812444 0.1628356645945134 -0.04369346985251172 -0.03057555727509841 0.03242150771149271 0.1266739991378132 -0.0149300668239104 0.01723238789612285 -0.1270733204883175 
-0.06113876570089068 0.00773718371871215 -0.005862337745880726 0.005209867865548019 -0.02112906869634418 0.01763437727303634 -0.1047205290010916 0.02722554857505274 -0.04344641681140739 0.1131473945976098 
0 0 0 0 0 0 0 0 0 0 
0.0867045088705959 -0.09217408482686104 -0.0004421491691178714 0.02535462236059281 -0.04330430751707846 -0.04905177014361956 -0.05175787218719029 -0.04108829577924229 -0.007870469890150651 0.09695150683680007 
-0.03161643142097421 -0.08458864873589715 0.09303306320208843 -0.04630620127867415 -0.08215591351775887 0.04951595965832493 0.1803694575503886 -0.02114157082544806 0.001057825143614091 -0.02349661029807594 
-0.04707711264328204 -0.1496110956090055 -0.01893398716964447 -0.00219522127989023 0.09809521943495725 0.0116676648729504 -0.03048578257583174 -0.06280096891255421 0.02945609603177039 0.1014326373856559 
0.02162666261656074 0.04911192501686541 0.02114714067272153 -0.006834633456634656 0.004228655546209014 -0.002730899124484356 -0.006039385484678285 -0.01084045103034779 0.01669445420228869 -0.0006569598375455474 
0.03152462452862653 0.02722144365442445 0.02066634500838725 -0.02300007419755081 -0.01858118465663686 -0.01765175148395703 0.01781588434916397 -0.00229806731556916 0.04327048841846742 0.02232847632271236 
-0.01859172109302543 0.03546492672878405 -0.004685747193461792 -0.02479742772961096 -0.02765014063774756 -0.01460999464352614 0.02863836125654577 0.02262303450773005 -0.006801693180943566 -0.008869008911270156 
-0.1341944822692404 -0.06820158153930177 0.05113424484800523 -0.02116473285165961 0.04748881011672805 0.008062945193124041 0.03513215178688308 -0.04593723257447182 -0.01685229478884467 0.04566803878187211 
-0.03591025177658293 0.09194303966883351 -0.07832411729020286 0.03445778644604803 -0.01975615360510802 0.06026828635477174 -0.07374404580211338 -0.06140279158528253 0.0347919165659074 -0.02295078622521776 
0.06445778380443062 -0.09115475081935925 0.04179172488494141 -0.06810065005646458 -0.04985303148142154 -0.04269643234950043 0.0977686804923875 -0.005566253447034814 -0.01554200819266467 -0.0441768147383609 
-0.04937156238097593 -0.0570143064642691 -0.06026239406748853 -0.05826861919636567 0.07793365480054722 0.0302206025175232 -0.0728978107652677 -0.1056662408249551 -0.01434290586728373 0.03563585487679704 
0 0 0 0 0 0 0 0 0 0 
-0.1157096048984575 -0.01191202425716122 0.03080148012643255 0.08037720925917857 -0.05360861127132053 0.05102640830045607 -0.07583728096340461 0.04789092232060858 -0.00588143576591744 -0.0888241792783947 
0.02591946631135904 -0.07317103784457675 0.03327356290323956 0.01865510871687663 0.1180817974945993 -0.06812375537963554 0.1835427818731699 -0.0739674980009362 0.009316854227106194 -0.1462659565032228 
-0.03124187460854407 -0.08847771643006161 -0.01368383993210453 -0.01541225962323057 -0.003231996193389538 0.055508209825815 -0.02514914201701518 0.0003336646077758094 -0.02473867046675266 0.03474605424578711 
0.0120428349620917 0.01727322061773872 -0.02033404212274829 -0.01291073764222195 0.05204029039882291 0.006815188135577533 -0.0233743278104495 -0.01573299987194391 -0.007263075926755075 0.01109845062447768 
0.04300016200166427 0.008730574604279827 0.008571330031064976 -0.02191327186272896 0.02819687020402506 -0.004093510250277537 -0.02230865781480888 -0.01088265410880306 0.01198330903288835 -0.02201585321395588 
0.04542483837324716 -0.002280434045349066 -0.02832243744968512 -0.01566448662354626 0.004576204255316299 -0.004022694447804931 0.00105219734748745 0.01365498074506122 -0.03626448952378836 -0.01862500690984944 
-0.007421960789073566 -0.03498671731115002 0.07547902878992088 -0.06354018025843952 0.001611916562793339 0.007702966203836089 -0.1146112342997275 -0.05028047676800908 -0.05011119989034611 -0.03046403591485505 
0.0352955436650341 -0.08274516537796311 -0.06388039440087054 0.06565744032451204 -0.02742637796636178 0.01689587587533162 0.04778325891958343 -0.1085794784593774 -0.009666676628857705 -0.05368688267302607 
0.05992994274176506 0.04262986827127816 0.02021309975290644 -0.07294200398426846 -0.007650348880800124 -0.06510938189103076 0.009771592217285031 0.05341657373898293 0.0007858931993005732 -0.1156194121317393 
-0.05592854163653573 -0.02737892898347981 0.05537182219768746 -0.04840941013838844 -0.01520655506119539 -0.03738072060432188 -0.1218126289552454 0.01568029089846497 -0.01702827858374406 -0.02837319334811612 
0 0 0 0 0 0 0 0 0 0 
-0.08663314239418546 -0.02691503214884753 -0.05052051087151468 0.02098227344349941 -0.07767195656868847 0.0946645218598318 0.00934140874309242 -0.04420381416052559 -0.0508743366266234 -0.02500588904295469 
0.05349805200186451 0.01899873398186827 0.02472552553341691 -0.03363056137966007 0.02043763384380259 -0.1156752225838028 0.0469114563065858 -0.03521886994546047 -0.006391715286073016 -0.06801946988475777 
-0.04997319882996796 -0.04033798719123422 0.01826183760784577 -0.0185911390256793 0.03849731859493921 0.01528625068116394 -0.0477928723212105 0.001655190443902338 -0.004350757446061535 -0.07030663742191394 
-0.03529861546352307 -0.02688820164227862 0.02811459608794221 -0.02366007375893439 -0.008421944779073742 -0.003085560655114217 -0.06117365549496517 0.01555714760991185 -0.01533787699540739 0.006449981524803528 
0.04014501602824671 -0.01717872262027467 -0.02575172173922125 -0.02144824538115504 -0.006305719579403085 -0.02141904765126096 -0.02589686794275767 0.003144064150586295 -0.001060074286017254 0.04791120970690623 
0.02386734954272509 -0.01886304731727432 -0.05787638802502004 -0.004219517381408153 -0.0149770030014665 -0.01027489901988923 -0.02725371705858408 0.03357152420738415 -0.02415127867282696 0.05925509647387743 
0.07660069632086974 -0.02156058724224689 0.008890277033839012 -0.1031565332582225 -0.02335882259215418 0.005279879961231495 -0.06755950603777816 -0.01354674254151211 -0.03727506295109697 -0.04499567001418085 
0.007542614021592072 -0.07346510529419227 -0.01701955253378129 0.08012931779477091 0.06204469175757259 0.01871670618954523 -0.02421411166454571 -0.1558209023137858 -0.02931044547570878 -0.03325252435776564 
-0.04519610879199044 -0.07154539363996143 0.002528733554661988 -0.08496163848269672 -0.005592208862847871 0.04270216162375894 0.1002845875199426 -0.03652200863206741 -0.05654559157894776 -0.03643588316333985 
0.05682104123724961 -0.0317397205199042 -0.01208630167833626 -0.09312344466042947 0.03691666127133004 -0.04534356917539031 -0.1021930030081064 -0.06223781655864195 0.004319077524398363 0.007309481847291426 
0 0 0 0 0 0 0 0 0 0 
-0.04470466750261491 0.03805245323693279 -0.03477399127186041 0.06090187705635872 -0.04844451676689378 -0.03158926436557573 -0.01225280119156738 0.004258621645997807 -0.02778424400999533 0.02448552045332144 
-0.006558410359657678 -0.0005756467669850416 0.06156121832498414 -0.06121069921861598 0.02645080419479712 -0.04386796661165417 0.09794073585826249 -0.05956484795208228 -0.02874487250518536 0.03099494300761798 
0.04992549507299133 -0.02443347123403159 -0.04539992783796573 -0.03421384643600275 -0.01354922167315372 0.02363151369292352 -0.07072642545867971 0.009695197747691679 0.01407940612742515 -0.009839441112328108 
-0.02640901912552809 -0.005745639492226478 0.03710732107911595 -0.02445604408788566 0.022578057111298 -0.02173205038263764 -0.07113332394341018 0.01767656036292771 0.001465146406560518 -0.009124007695731561 
0.01530415221768926 -0.03327418473448678 -0.01980302833781051 -0.01430879748667578 0.02731227873177193 -0.02433985949184847 -0.004858382085129399 0.01280208103311289 0.004174619736424604 0.01929254332111582 
-0.0271623554538029 -0.02718125574065367 -0.03997688072423794 0.002817436416488425 0.01777540238289908 -0.007027572885825057 0.01472821098302554 0.03916415519630344 -0.04146945992264611 0.03184895405206736 
-0.03328423316271112 -0.05851969390940746 -0.05350344457267807 -0.07733059886918749 -0.003225652769152753 0.0145649755426978 0.05348772395697061 0.05189984095260446 -0.002777992189087087 -0.04269191691216184 
0.007517868323362049 -0.1540102580178296 -0.01936585911097181 0.0856391628985214 -0.04329216090728837 0.001481702859223423 -0.03616069690038476 -0.07090446454212322 -0.03749598605011001 0.009517708553817405 
-0.1262200180281902 0.1286130051282472 0.02245841635877398 -0.03594567733399737 -0.003714071920673929 0.02239762363183679 -0.04113437255155793 -0.08719973987675418 0.04545989538130936 0.1162973127547858 
-0.03685212204425949 -0.108230632381535 -0.01336868106618897 -0.02114897403393651 0.07069524104031513 -0.003430885130055723 0.07537961363602549 -0.01586978549755361 -0.01449753919842096 0.06136501147201689 
0 0 0 0 0 0 0 0 0 0 
-0.005999962956420067 -0.04458957766343911 0.01141391167364868 0.0173195053268998 0.02129480818149738 -0.08566678089961745 0.01669649454911584 -0.00529260297185184 0.0007669215321491833 -0.05774392972450657 
-0.03197337999575263 0.06191523586509923 0.04839690970308268 -0.03503985750765876 0.04777684885440464 0.04439030842020146 -0.02261622462246317 -0.04917350282148672 -0.02260951826462159 -0.04882373083565143 
-0.02064021648018721 -0.05947696870015987 -0.07710171983137475 -0.03228475236674457 0.006979255667706098 0.01128542671957463 -0.1085324791947858 -0.05301153274237483 0.04306155151960194 0.08525809413511162 
0.0564099319231461 0.003536239482328441 -0.005148059211451692 -0.009649710757202969 0.02515188230952633 -0.02445024509383663 -0.0175470397216203 -0.01670953360518606 0.01928097697840246 -0.01036487227397195 
0.01438865227327426 -0.01612964855927929 0.02762121867097065 -0.01398384430138267 -0.017124411599548 -0.02584005773452015 0.02214085564375293 -0.00701478838471261 0.03484355635701546 -0.03038816599885849 
-0.001018144345144515 -0.01731485850054657 -0.01376406665703916 -0.009366644817670314 -0.01418947446313314 -0.02027727075408643 0.04585958629709345 0.005943484372065265 -0.01213594115031722 -0.02339497891257858 
0.008622171247112072 -0.1206548381284254 0.008714926601515453 -0.04488141086410524 0.03295936718907497 0.05096611698089293 -0.03579349369595183 -0.02929915077859119 -0.01500420711220552 0.02837569868883933 
0.04584732514627021 -0.1265526206721614 -0.167181847136317 -0.006727145673336647 -0.01771968081720376 -0.009966054881703604 0.02675469555948373 0.07366455804753028 -0.06087718639726326 0.04264188729727276 
-0.04145685211453486 -0.04602267784878111 -0.01797183851147768 -0.01463111259729958 -0.03419753161653848 0.003702668265410782 0.04670255113443603 -0.006151556237405542 0.003462926047633035 -0.01981968551739863 
-0.1171542293561576 0.0326137376305566 -0.003564717550154777 -0.04653582834697882 0.08295930750881692 0.02824213581082619 -0.04688009028285497 -0.05930940719182876 0.006274578205594616 0.01309087147622038 
0 0 0 0 0 0 0 0 0 0 
-0.03195756162585317 0.0699477658481337 0.02096526029788033 0.06523181881192353 -0.1405852437404115 -0.03652867987337134 -0.01352341166868719 0.01230172971248948 -0.01921127428554537 -0.003142592741965089 
0.1146544406469975 -0.01005191715951992 0.09022331707624033 -0.03620974685734776 -0.01392137001060264 0.01026853894651143 -0.006110789862649876 -0.01351378604447832 0.02324906205992444 -0.05982262768595691 
0.0268995490957807 -0.0349691885616473 0.01925758452861612 -0.01124798984328787 0.04862746300835614 0.03570960428173243 -0.04231094823908261 -0.01149891785743378 -0.02555765366717337 -0.1024783300843422 
-0.02492916171889614 -0.02564950866450973 -0.05039969239808118 -0.02407899822856274 0.02591990117070249 0.01516821959244228 0.0003571649464298981 -0.02850958936578957 0.01080389492687037 0.03406130187008351 
-0.02365690765976121 0.009040948463205689 -0.01574536900082181 -0.02274549243534805 0.008074316761860306 -0.004818445182656781 0.001737292724413238 -0.0203999883395034 0.02175250151568605 0.002801972556382942 
0.00391014730185388 0.01563640532843835 -0.05456949373600765 -0.01032773021372647 0.004996443727748774 -0.01789401473673348 -0.0003293704806387718 0.00847613620860067 -0.02839890557651617 0.03148692014955557 
0.003830535413823053 -0.04067803437893388 -0.1095959174878428 -0.03968974186149007 0.1495438501783887 0.06661629419533428 -0.09710014653518993 -0.01586255931779744 -0.02684566799102735 0.03307988351225929 
-0.02018253660131559 -0.1192091914389379 -0.03963256334659113 0.00946364128879891 -0.1075332748171026 -0.02328193255838388 0.01290062039215585 0.01455573573322851 -0.07254847369386237 -0.04968067782185688 
0.0276455817414477 0.08921097655872039 0.01039669370733847 -0.0527856381142475 -0.02566507370788106 -0.01432007712957698 0.03558016093159869 0.005948665665031783 -0.01188525229920276 -0.01222708246770484 
-0.04486843364723795 -0.150178743993536 0.04414064134337497 -0.01742997248322095 0.03431068471043799 0.1116265612079894 -0.04793667135874956 -0.06553143373247082 -0.03753364128179182 -0.1711593363454069 
0 0 0 0 0 0 0 0 0 0 
0.006604504643827133 -0.03950761733332214 -0.0431234695753511 -0.008641418338701736 -0.1722273308941925 -0.02116485375583133 -0.06537166920534419 0.06435729302612063 0.0006637911121966205 0.04666368146834045 
0.02079984423730725 0.04613482512588081 0.02911417551839418 -0.04578960340739906 -0.06379820866394482 -0.01858805600797855 0.07379901708047334 -0.001660555643554566 -0.007564086975964875 -0.1311978398600326 
0.02189861643013842 -0.07728540063919577 -0.02535059883468693 -0.02591806550735773 0.04675126318146418 0.01508328515348172 0.01772260550406828 -0.02315235475765539 -0.007352199480682241 -0.0512947356264341 
-0.05164566167165167 -0.02612313387310788 0.009970621166808134 -0.01634624409571852 -0.01655659404210056 0.00934197027247155 -0.01610848358368143 0.003514658848135102 0.04560606615240625 0.04556529246622509 
-0.06028222148980709 0.01031807461119869 0.02014791205502808 -0.008863338326165187 -0.00821899673800046 -0.01283261624545409 0.02377974694480961 -0.01115947841172443 0.03923348648864067 0.03014652390873441 
-0.07309071334187486 0.0184608468932239 -0.009012049753727 0.009370659918177425 0.03727812156416109 -0.02342356730524618 0.02908304836767275 0.01036974656484637 -0.009412384617600836 0.05163671004837056 
-0.1324488680888359 0.1545814399433299 0.01625109307985052 -0.0358249879333631 0.01803403355811485 0.06592069558219375 0.0083652360489907 -0.01681117383897699 0.0002829764828931045 -0.09598638455443399 
0.02127962413056603 -0.1711238906469243 -0.04669613493377631 0.03616634759081865 -0.01011966980204544 -0.01288667135423823 -0.01514482686900218 0.02980858809461304 -0.05367693269372064 -0.04370144987341309 
0.03276328241507211 -0.07901505729400758 -0.06175008546357893 -0.06845278233233459 0.07338695172302402 0.0002885349000783294 0.05307484939612465 0.00926038074815568 0.008484676881983129 0.1378580732034836 
-0.02719325893275799 0.03568686464829929 -0.01922747172845791 -0.07823311944949181 0.1146952944501185 0.04329188416752076 -0.02789765065576669 -0.08363989227743679 -0.04389369260487187 -0.1588983310678619 
0 0 0 0 0 0 0 0 0 0 
0.1104549242690161 -0.02459958082473606 0.01176243929023186 -0.009100666189606074 -0.08375210199471431 -0.05234084380798019 -0.07369173914166909 0.04427319997908815 -0.03980451217302762 -0.01233977209002623 
-0.05122319259926625 -0.03902227818407508 0.01202409923056526 -0.01093932336966431 0.04982634355824633 -0.02622754637371827 -0.06626749128168782 -0.05084952771021398 -0.0138659264437425 0.03876157187605342 
-0.04182038339449597 -0.04277189748606816 -0.01669120306752373 -0.0137917420553995 0.04609994658272238 0.0337475140706154 -0.001000791811495395 -0.0263224867504057 -0.01959580720448856 -0.01401851850816498 
-0.01539455441302317 -0.01550008279447159 0.01195980077717662 -0.01253940576871742 -0.01739723118080435 0.02005757086406755 -0.04998136553272198 -0.01141230009948018 0.03810782361068359 0.02341629756924365 
-0.04246341664302198 -0.004954871549874769 0.0250672451094704 -0.0009357221954883081 -0.0275969606534172 0.008801280845826947 0.007189053465305142 -0.01757102355999303 0.04628473054960686 0.01680185288808501 
-0.08547422950615984 -0.003037121181012954 0.009763521478222563 0.01631326022348417 0.00281624586333474 0.004595188165605338 0.02908736618054001 0.004665573420632078 -0.01441509531261183 0.04809573067108078 
0.03424422974362845 -0.04446960667762205 -0.002695399709817381 0.008898030168310752 0.1002427175280964 -0.02607135869595578 0.05657068073374945 -0.03344342136988558 0.03777380010539123 -0.05699736900176391 
0.05979568434737725 0.01132252295896275 0.01136547634282047 0.01814723936493299 -0.03778945213692599 -0.03609757307389526 -0.03923494320407413 -0.01132853520527515 0.01816513296833111 0.1026057378000968 
-0.002385212694673655 0.04860556360336972 -0.02642882638411006 -0.0732326099861627 -0.02110164372596528 -0.05946736329947963 0.05927944574216633 -0.02308298304481024 0.01815053648858941 -0.02339570654087753 
0.06020669662605055 -0.04680676392174162 0.03953868416585395 -0.06344959434121607 0.1489529961612808 0.02357449703740431 0.03347746942560023 -0.03786583516074339 -0.03256620546361574 -0.044604414441665 
0 0 0 0 0 0 0 0 0 0 
0.01385955788506779 -0.02076847646229578 -0.03390003234659299 0.001834079715065245 -0.1035443883943612 -0.03933237622080677 0.0140967173595185 0.0825596227084107 -0.0008189080013527776 -0.0379194952923378 
-0.052977247553682 0.08316474402248249 -0.0539715834444269 -0.005119065421634685 -0.03051329933478782 0.03264929184700097 -0.007097826065188709 -0.0434355754740618 -0.05524958978224432 -0.02692523341299823 
0.09620876827690912 -0.08752078813465161 0.01880144252025335 -0.0089741685583701 0.0352111874234869 0.003200463921385505 -0.03949307415879488 -0.04614790741642474 -0.005429821645173255 0.01933349428384749 
0.0441796770728046 -0.02003673848815941 -0.02481678634768575 -0.01133384350913589 0.02810222823107375 -0.004381693327704565 -0.0007245613683733779 -0.04865098220903695 0.02540354860859561 -0.004143971875494486 
-0.01962278926735373 -0.01380120948119575 0.03589013823315303 -0.004187782700691218 -0.02900903663332795 -0.01539194503922695 0.02152862898063803 -0.02901471964684383 0.03471760623933153 -0.02528692864115124 
-0.03189434856859212 0.007351098668864056 -0.002958070113303627 0.000964188783519471 -0.01447911645291221 -0.01307332032233213 0.01556775818392103 0.0006434590117175571 -0.03594027966804215 0.002599120582766018 
-0.02268592438460054 0.1482155870384288 0.02259325565352938 0.05029171919594744 0.1234594492100134 -0.01499240741198752 -0.08017191494113751 -0.01403058180244568 -0.02751808087818806 -0.05920447704203895 
-0.1427299389010804 0.06601131654859752 -0.01593503125343302 0.001964203977029603 0.04396006257452087 -0.005537803262343399 -0.1189514263594204 0.07802146917392049 0.2561580751973362 0.02333712267165899 
0.2237402792650739 -0.2114761467467729 0.1767377256402348 0.01457026028539126 -0.06595737416382831 0.01336410433462074 0.02038924831353958 -0.05935663506274505 0.01667179378735976 0.0377454624658578 
0.02154160148748027 0.1476505195482488 -0.01590324600393068 0.03944792753891226 -0.07286090898880229 -0.01092784546926748 -0.06061392391237318 0.002682387594376596 0.05252716129185711 -0.0362249567050813 
0 0 0 0 0 0 0 0 0 0 
0.08745498279926422 0.1874317109438603 -0.07605647598031091 0.01235048919108057 0.07737433576247692 -0.04338120661556939 0.0458145773673236 -0.01716659389100701 -0.04826620515636944 -0.08255132591612235 
-0.04539019518909098 -0.1206034090859608 0.02964207158273235 0.04192193654095161 -0.00957887306533318 -0.05216527622749204 0.02927093749056249 -0.03656946322963105 -0.04172481247805509 0.1833070336952221 
0.07651976204469801 -0.01417074238493716 -0.0205942508491233 0.02578671230621057 -0.01096629249384692 0.0009435545215402346 0.01617051409273192 0.02629023373356798 -0.02253310916551863 -0.008132362279378077 
0.04352559173579979 -0.004658093074973906 -0.0500539055294426 0.01629154733116195 0.1256033776829547 0.007868456971623326 -0.02197570238325631 -0.03784536734232224 -0.05138667503797072 0.01899261058349435 
0.03507855492720466 0.0009741265064279251 -0.03130777988994917 -0.005364036895028634 0.06582100111494121 0.01512931984319783 0.01879346106543037 -0.02095239287869954 -0.03707688945282431 -0.02775762618787692 
0.04742989286795455 0.008671514220142522 -0.06814205686182051 -0.02678612844744587 0.01061084571941882 0.02769984591773804 0.03485156145608175 0.006776488408097666 -0.08425960175697664 0.0007917863418273495 
-0.1504234853104462 -0.04657932408446451 0.0445081645838754 0.05254699984219261 -0.05910362112051906 0.03270601636965267 0.03282265084679094 0.009003298282140193 0.01971066396086808 0.03701833521268136 
-0.03543882883964369 -0.01872459723601015 -0.04326390735276571 -0.03973172945079897 -0.01563912959168759 0.0002080469456158635 -0.04728073729273299 0.02975823620806246 0.139964315239283 0.01244131140005828 
0.01246229988111901 -0.01435402241110186 0.0322706694054579 0.00813418269213058 0.09108940861307503 0.1160224086335087 0.03881602417607685 -0.01868641339929542 -0.06313104790190402 -0.01336223662892614 
0.1014189264113247 -0.03501314785669393 -0.1256073271148549 0.01333639071868557 0.0221537613082705 -0.02190519891234954 0.1045771843385382 0.007598710744850769 -0.08515317482095607 0.07696419095784933 
0 0 0 0 0 0 0 0 0 0 
-0.1177007108201802 -5.531241210833697e-05 0.07260402617508646 0.01465067551616944 -0.04077025888998087 -0.0158520231036243 0.1478321956817844 0.04943106852654076 -0.05145042469702476 -0.05977213611129304 
0.01847597742115531 0.1325260899868587 0.04151748244555702 0.0407903686098039 -0.1217114906962211 -0.07974575303084404 -0.08539243142067285 -0.03451236223328265 -0.02818187713019097 0.004594930028202809 
0.003291512027129913 -0.06694964878153951 -0.05410963198142221 0.003774762049847694 -0.03312544026014829 0.06188037733867246 0.02876988757422841 -0.01209003374492885 -0.01347101589867938 0.06287663912791348 
0.03354237559663237 -0.05220499463307982 -0.007602766536862691 0.01290376609174445 0.07232705905772653 0.01292469875455056 -0.0431573030337299 -0.03689985506101634 -0.02060937428757936 -0.03421573160534617 
0.03712015556871343 -0.06381307449895157 -0.007607250094637465 -0.01224541602543614 0.007325786886237913 0.01777286143277108 0.01383478180287858 -0.0169825675384695 -0.002731106487917607 -0.05243343130231368 
0.0376857785249639 -0.054437598321979 -0.06113840900614775 -0.02834307421793672 -0.01215771258338322 0.03041709113304881 0.04572932736044624 0.003167134627897135 -0.04023190618053615 -0.03658195501228544 
0.1517282083434065 -0.03321173252152179 0.08795752173772375 0.006545946212235027 -0.1763217019722731 -0.02650393867345938 0.05018842559003797 0.03825191692651515 0.01657459292089446 -0.03159214854992263 
0.01594885195865001 0.1556140572402615 -0.005460805895875825 -0.03771026721887822 0.02346974161057011 -0.004996240202450868 -0.05260808903051171 0.02542817253290977 0.1319635215371145 -0.08949307716847879 
-0.006732196662881289 0.004770055122414136 0.08313319206052848 0.04618265111578789 0.01463776006414193 -0.04707390396513994 -0.08577677446755985 0.0002568882268902497 -0.1716481572114171 0.0660878175482093 
0.0390266170516106 -0.1303713713248758 -0.0486551906531722 0.006866214571901292 -0.07844822810321708 -0.006480277993238664 0.1400408138910333 -0.01508367929592312 -0.05759712637102023 0.162135913171833 
0 0 0 0 0 0 0 0 0 0 
-0.03521453629325403 0.02454178939711986 -0.06852173035934246 0.01437697205958794 -0.001709793843082865 0.03673342380471233 0.08089945981577661 0.04537594162897474 -0.04881870240565706 -0.09966403828022259 
-0.06885070569566491 -0.01818461419568537 0.02811723108852269 0.02549540264175007 -0.06411062494124774 -0.009209857730354291 0.01269988279014613 0.01257794137990445 -0.04128248639693564 0.05646621268437461 
-0.09941120749990572 -0.03207138455879038 0.02762199538469812 0.01618202856774438 -0.05109139603772529 -7.126117330531951e-05 0.08620343929447732 0.007855441889150704 0.000239217671758581 0.004097835687223032 
-0.00462656889307287 0.0004218841025972537 -0.01620182475790604 -0.002094681237067731 0.09252177289358622 0.008145378133442195 -0.05610591654264559 -0.02134013101375176 -0.01998622129198403 -0.03502356426855029 
-0.004050144206646891 -0.02040027650123973 -0.008646687016018444 -0.0211244955660804 0.01952335201273963 0.01060588530267766 0.005613706209420505 -0.006202562898930156 -7.270995644551241e-05 -0.04552922432034617 
-0.003102471936636805 -0.01604932851542034 -0.05511984431641937 -0.03366356614582261 0.008641661911553949 0.02306567958596989 0.0521438261497337 0.0144105892011403 -0.04767189846057675 -0.04601345160297451 
-0.0655490951794734 -0.007932930637458929 0.07041247807543288 0.02279408742323246 0.2457495487704805 -1.211897170263996e-05 0.05626060065221369 -0.04818853689520144 -0.1394698724545826 -0.007264017075968633 
0.05231767332526853 0.2510589989816991 -0.1696301052693153 -0.02106104080078767 -0.1183369020372903 -0.03425862369135223 0.0004167460143840671 -0.04085616988031888 0.1022742621122421 -0.09114595157271578 
-0.0007662393938286945 -0.04299973650590191 0.09078152394400109 0.02713271670610044 -0.05992124541814881 -0.02357294776854929 -0.1301543379935912 -0.05116358822997808 -0.05628250670170061 0.07691028171376449 
-0.0276134773320905 -0.08496234493687896 0.0896447352179747 0.03459773461876952 0.009008091638868518 -0.01856610445842111 -0.01439965358872889 0.01827447884130162 -0.04889568111188109 0.04037557051853249 
0 0 0 0 0 0 0 0 0 0 
0.01871687670984468 0.1224581028300489 -0.004126278158954756 -0.01725578852566755 0.009395920695130199 0.07820289320812071 -0.02180841858565533 -0.004930403355283251 -0.1153492101909262 -0.04004604523337658 
-0.06358870775690249 -0.1097159891107945 0.01170586003331273 0.01219713144970292 0.1624433790048095 -0.04011464938196817 -0.02696701421351711 -0.0536224599677618 -0.08202411566705724 0.1172064521093645 
-0.03661393951093995 -0.01058316531431192 -0.001884454998620367 -0.01777392006537499 0.1183460198171181 0.01988286054349202 0.007411387688725769 -0.01279054351156475 -0.04457112688457821 -0.04407200906062259 
0.005869131560120052 0.02879763585864499 0.005839088433839393 0.0163861036324602 0.01771225916760838 -0.005041858324624491 -0.07609218918924 -0.02056272543885298 -0.009675009634769489 0.01427813495411768 
0.005339786229647045 -0.002139870687822455 0.02919061655735429 -0.0009641366812215464 -0.05273127707796577 -0.006480752482179117 -0.02009777401839936 -0.008766232504603191 0.004392721101312532 -0.007638398647515338 
-0.002188587664074844 0.00939456949430475 -0.01468288368894276 -0.006400540845834327 -0.05392422901597257 0.01365137899113261 0.02499918001092687 0.01859483195428675 -0.05263802844172622 -0.02477534765484563 
-0.09205174251415214 -0.08388175544897057 0.1778539543202311 -0.0007929338828816468 0.07756289383036305 0.05008279060360724 -0.03408571300366278 0.04546800665465907 0.03962710216748495 -0.06265901586128629 
0.007048363667156446 0.04334949107111448 -0.007005062280660277 0.03955116291769745 0.005438383195487427 0.0398059440975761 0.06808391695623689 0.02936787155690911 -0.0618758946787418 0.06542984141182855 
0.121697693893601 -0.04660006703330768 0.08312666718726294 -0.05950028615585925 0.01148794468124949 0.01921261016408332 -0.07562715653325612 -0.03206672983494329 -0.01204830036454392 0.06974420880830301 
0.08237387895545119 -0.2004620236418321 -0.06554668522168516 0.01262623950797704 -0.1172865027289044 -0.06629631195177584 0.02114251048580616 0.03125858132388679 0.1378571226937697 0.009323830425629693 
0 0 0 0 0 0 0 0 0 0 
0.0116951263366328 -0.001070555591973539 0.1051078451366314 0.06281997911694839 0.05100095645816406 -0.0736264307477497 0.08473495794273689 -0.01718935744224184 0.01485138558675959 0.06165528873124464 
0.07443257262423156 -0.08629540661150699 -0.05384603335107755 0.01883498530347454 -0.04155986951570734 -0.09744123671430159 -0.04052327996818743 0.01064058497992258 0.03000229767192846 -0.001250393418521364 
0.03204848835469813 -0.03645947135846012 -0.01476970641897369 -0.02559442728611061 0.04368452761839251 0.07791277603436465 -0.032492256662109 0.01502919876314305 -0.01689092581822758 0.006852597243494794 
-0.0004001754004547395 -0.03850059565565675 -0.005503924437582669 0.02607785938537741 0.07097631892774055 0.002145094235374655 -0.03912845701106566 -0.0105670881638466 -0.006521072907474159 0.01639259831817137 
-0.004129741754724951 -0.04162554380693705 -0.00889128355694711 0.004244698306231152 0.03438072200117948 0.0103078917752208 -0.009951901888581149 0.0002262513160221596 0.01082954708279128 -0.008461834608881488 
0.02394031617399038 -0.03338166320335979 -0.02349601332838822 -0.02204181957140404 -0.01902934431941728 0.02343618165202823 -0.0005342358959527085 0.01499483015466369 -0.04694482413403314 0.02721777375504011 
-0.1054984074461477 -0.04909204849914452 0.01504807196713616 0.04652944923531369 -0.0429831038432308 -0.007581414490255551 0.04195776747071721 -0.01826988319747847 0.1113939518468455 -0.02101992690733144 
0.0879581229344219 -0.09162908775795658 0.06513525864716299 -0.05068256329673845 -0.1470393057402672 0.05124325918410537 0.002679984818495951 0.06492355274581538 -0.02766890127944226 0.0006298490193395441 
-0.03179812586506531 0.1040280451400815 -0.04613647016432886 -0.03466352209962838 -0.1276835080208187 0.05170498321763147 7.582657744943307e-05 0.02091485574325835 -0.04268272110983985 0.009340450863775265 
0.02487779959945218 -0.01934795144300315 0.1013702664260306 0.02800859648791033 0.11322711134962 0.008681146029364317 0.08033363839928699 -0.06616368829848225 0.06828992682506936 -0.09920208986449815 
0 0 0 0 0 0 0 0 0 0 
-0.1498928483710097 -0.01519196428709754 0.03601570071477852 -0.009757942394266113 0.03232377606932786 0.009128533888001099 -0.03982543153711791 0.00486591163714924 0.08716259495488346 -0.07122444259127032 
0.022170997854591 0.01114021284972564 0.03274986240108924 0.03046443094341068 -0.1614108771537066 -0.006419834490324321 -0.06856595188635196 -0.05968192485947603 -0.04047653591264895 0.1343239370901884 
0.02186364992776375 -0.07654504600427008 0.02405669569385165 0.009729563701081035 -0.06456940597594006 0.01802001052237721 0.01173557267187666 -0.007263856298359278 -0.02941290130933683 0.0186548526122746 
0.04430437342777582 -0.02118234141285408 0.03367040831300131 0.005149334515829464 -0.05396350480389003 -0.008540394997240922 -0.08131773905677328 -0.004775690877627138 -0.04695641578070128 -0.003170893631815834 
0.05219640880860497 -0.03823883609405097 0.01396487120835896 -0.01358449802424373 -0.06982574571194891 0.01077498779118717 -0.06250556533952147 0.00435907303249143 -0.01336180638182967 0.008457968479033835 
0.04531492363085063 -0.04755710836744275 -0.01773377616286986 -0.02478651062081324 -0.03577843009840122 0.02419759968569649 -0.03820325078657676 0.02641950262541367 -0.0732946314251621 0.0004237811599852217 
0.02229917765861027 0.01518934615278832 -0.03192301279152329 0.04042136593861105 -0.09024120399840785 -0.007097454669864726 0.06337193284455447 0.07259548482609293 0.03798254205587867 -0.1621223953946691 
-0.05704140220891052 -0.0914428479527474 0.07768466398209828 -0.04921804070043704 0.1043051478450745 0.0510542387506908 -0.06875126205513737 0.03050958387502726 -0.08694727429307968 0.05885421221458664 
0.0893472320638125 0.1373596143214189 -0.1259308372141656 0.01241294361575774 -0.06776386961881442 -0.005842704364889759 -0.01432676974458791 0.01320780670842182 -0.03669228519669639 0.09719018215364533 
0.01798845785491093 -0.0493415207163605 0.03294967239974801 0.01742878405781664 -0.01558016047192935 -0.01574148452007856 -0.08316082635234878 -0.008671599440708104 0.06619194016813322 -0.1336698895858699 
0 0 0 0 0 0 0 0 0 0 
0.01665109658453855 0.006810769658226394 0.05268224833940213 0.001631758158706812 0.03715352707739265 -0.0637701214989658 0.09425349601882406 0.00674239996989756 -0.03301677867617614 -0.00913956597294552 
0.03326294097811455 0.2437330824838893 -0.007417504827820818 -0.02206716459482991 -0.1746993900630106 0.009851447403911579 0.04943084420211521 -0.05433486675396289 -0.08499595533866458 0.08515939878528266 
-0.03866630331258136 -0.01533138373929973 -0.01465633884895094 -0.01019084920199551 0.08022671807676029 0.02279778975772897 0.009517384016544573 -0.0351387564775958 0.01813444625256355 -0.09153438394278318 
0.04724404575629487 0.02202832377933966 0.02208950648808548 -0.001274949141659295 -0.05349864563651283 -0.02204408024720242 -0.06187790249716828 0.01833600290312925 -0.01847598508640841 0.02958567724815632 
0.05705377235912032 -0.01785472046075563 0.04386074844721295 -0.01777155821116453 -0.08793997101184352 -0.01605300368699414 -0.05444743024314269 0.0167019940557042 0.007133119354951169 0.03127796963434093 
-0.01977453594050091 -0.009808474013551781 -0.004415337066541157 -0.0169566717858123 -0.06524888636980074 3.506369748821896e-05 -0.01962574500960357 0.04882992376529709 -0.01278752697758036 0.01090928474801267 
0.08871540198241513 0.0956871136709235 0.05151433363667104 -0.03003615682392916 0.02789509665581319 -0.01506546387788632 -0.03033515797780746 0.004269537309903659 -0.001022841522835481 -0.04265529106857708 
0.07784450439179864 0.0411222576006343 -0.08235464044947288 0.01608769122558445 -0.1018171659193111 -0.08223577179737354 0.09371397031755442 0.02204201305706534 -0.009039936185962227 0.02127211650982623 
-0.0311882234205181 0.1906932467214998 -0.1761804051393764 -0.08798427362135351 0.06455236859925566 0.05753692189105194 -0.04415896876610977 0.02668312998301571 -0.02233642290114487 0.04474072878273749 
0.001656126861411273 0.1034802556226202 -0.06682191850670471 0.05191027207034824 0.02959204061020161 -0.06429488800371294 -0.06144523749893089 0.02006930601757906 -0.01959827995418874 -0.1606298865738713 
0 0 0 0 0 0 0 0 0 0 
0.1288871121678593 -0.04218812116142662 0.08932659912078783 0.03336629311752689 -0.07582946944589986 -0.06397138377398481 -0.01887799629497143 -0.06648554396281169 -0.02126463063780444 0.01843905734860482 
-0.01537481139408884 0.09644901499213304 -0.08877604476391951 0.01568259466831281 -0.02261382117535483 -0.02675085201691175 -0.09411000485959721 -0.1098115813932692 -0.02564776737210816 0.01275466705804988 
-0.01336419407128954 -0.04236355547540856 -0.0722158145387084 0.0057696767445619 0.08385177086592539 0.001002407199727386 0.05204177717837071 -0.001213092919521008 0.008814330437553659 -0.04575433883011243 
-0.03653775827524527 0.1015437967685695 -0.01792474053236374 -0.0009643621008903447 -0.001291274423048499 -0.02861387194438869 -0.0834056262763225 -0.03900634652774645 -0.01442848726240568 0.05003024896122942 
0.003084973150609386 0.02670851607401127 0.01403616558221059 -0.01094091000164053 -0.04554712098088804 -0.04493238964686165 -0.04955450017615831 -0.0367962168419004 0.02098838728112826 0.06907935385993615 
-0.139159390410714 0.05938264984040374 0.01531802359356765 -0.003884253432656081 -0.05594026864291284 -0.02626974178348948 -0.02047156304828058 0.01879512449889549 0.019796741514865 0.05171034320389268 
-0.09423137685414625 -0.1356030988159047 0.205202141263596 0.05221071908047253 -0.02435805000055054 -0.03845550565163387 -0.06989356222797682 0.04020398645368011 -0.03006205719783763 0.1238895257034791 
0.001756660578342153 -0.1147136321450571 -0.118759845037208 0.01380454849302963 -0.0910266702527035 0.004913083332848277 0.01694467802278053 0.0007209854041068822 -0.007243296945544004 0.1708212033240885 
0.1382423236353486 -0.01938612517947622 0.1185140115929866 -0.03474487854841869 0.019270834135969 0.04845934491956955 0.0455399502680084 -0.05775886663931979 -0.08204767575437739 -0.005448534980115421 
-0.03682000829679825 -0.08978811995966091 -0.01844699063997007 -0.02093969522917447 0.07413316122374181 0.0380111286932866 -0.05261490629380161 0.01855966132066787 0.1714203643085298 0.0166621354024265 
0 0 0 0 0 0 0 0 0 0 
-0.04809264718420309 -0.03209606383095855 0.03108049292225778 0.007375136141042857 0.1029232633276603 -0.002067318807225024 -0.009842921997333734 -0.01162447745360108 -0.03731317401289606 0.1259716236054085 
0.03496356837127935 -0.1703984796724897 -0.01008853054209948 -0.033730346763995 -0.07644777795519939 -0.0008913116087568521 0.08662405327916836 -0.002466101112118951 -0.02563403792161366 0.06702271835655844 
0.02131501107922767 0.08708088821782252 -0.05490684155051025 0.01135784806681535 0.02284689176226604 0.009395872516364258 -0.07773615246227378 -0.05056802987517583 -0.01026159894300279 0.03269571139358037 
0.06064546222699085 -0.02029072297294425 0.000375355937515086 0.006128838696410843 0.02464336489915758 0.03103595687243959 -0.06642558938332971 -0.02585154863977679 0.0161158987695386 -0.0243587520973598 
0.05064170206107566 -0.04790112656462937 0.01076311281772551 -0.01190263696408523 -0.01061770940486122 0.03293952322729118 -0.05650854139146076 0.000491994874634939 0.03061078128232828 -0.01464554938845564 
0.05611060308492359 -0.04272546535292071 0.01351842397116761 -0.02810628715578271 -0.0618134725316414 0.03004690588981808 -0.04385740757380763 0.0139569387305745 -0.02755121237311834 -0.0118441355592786 
0.02283618253240314 0.009337315152815511 -0.005630160107188305 0.01375903225840221 -0.1195005595055921 0.001217228576664799 0.00298668473353399 0.02493489514292322 0.1032719659773716 -0.1546251494396042 
-0.09919721381483948 -0.06943221562103247 0.02198507134364213 -0.03250424626059447 -0.007152338883532222 0.03304191383726077 -0.017327698174907 0.01315163261935605 0.08330581350879403 -0.005610609141824094 
-0.01658341379739252 0.1443077514589916 -0.007574736962776055 -0.01677269718381503 -0.02004492906447342 0.00236499533416953 -0.06226188941012441 -0.04854339233251116 -0.02120274253387669 -0.01890669559942872 
-0.01606401290128624 -0.109821175392217 0.1354859611799704 0.00953256482625707 -0.09234853502999366 -0.0773116641234359 0.05222531725855908 -0.003421149094124678 -0.04642266228542791 0.09833577221924315 
0 0 0 0 0 0 0 0 0 0 
0.1050774781847023 -0.1401823734324069 -0.01356396738251291 -0.06971705815755598 0.03364732202986048 0.02883746913103456 0.03069454231042295 0.06160761277233109 -0.142001336658151 -0.05847011152114106 
0.08266726163585057 0.1748163173907875 -0.02461433020994892 0.05560970047417244 -0.06300042831542434 -0.04584806881641899 -0.1343017972615389 -0.04884246013024215 0.09228933439988048 -0.04796613268519351 
-0.002408804028938328 0.007002784556831463 -0.02282026410719789 0.02126845695814534 0.05052862869487484 0.03926331752684534 0.002983130824624957 -0.03231047412353254 -0.01379296090442307 -0.05803797564404901 
0.096196459771223 0.02252198294392126 0.001267845040770872 -0.01484101375594226 -0.1050889229312414 -0.01175356111300854 -0.06556483273733313 0.005620504916465864 -0.039467932687018 -0.04911798715160731 
0.1146432892564022 0.01078776804657315 -0.04265777181300934 -0.02930298139738929 -0.1094505124320293 0.02320124828492912 -0.06338190184590631 0.01725746135738715 -0.0126277771892823 -0.03668049368415509 
0.04507325928360021 0.004237908440241225 -0.02478071101542123 -0.02328061067223438 -0.0877730251712955 0.02695585688431401 -0.04211859910867849 0.04723788710460364 -0.03745652171721034 -0.1115069313158887 
0.2464415602110966 0.02643679263551205 0.01681499034142202 -0.06203612340006054 -0.08024612965906223 -0.04694063046844677 -0.06778387062486584 -0.03251109196778935 -0.02610297998374031 -0.2099260792242366 
-0.00869705424821215 0.03479212507028706 0.004369345901314313 -0.01331391282975107 -0.09090730817048578 -0.03332932131981919 0.1401011304438967 -0.06115582085511199 0.00706760406593311 -0.04379831149487803 
-0.1102915618658784 -0.01953873663099191 -0.1823114877044255 -0.007925656875787694 0.02331286440672958 0.008067596650324131 0.02927512658610125 -0.01547836855402942 0.01882123434541883 0.1284732216990243 
-0.02582643522497444 0.1559104324115245 0.03776734680486984 0.03369149511393189 0.09876005353360411 -0.08347155894116409 -0.03581324715732661 0.02663290066029319 0.02778976654802116 -0.02165076730372384 
0 0 0 0 0 0 0 0 0 0 
0.05541621787951356 0.02763862110903803 0.1579678044450891 0.002312404120694534 -0.02854800693773241 0.02251434950025656 -0.01538457691333635 0.01832133688230058 -0.07038564050183882 -0.1916384120631668 
0.00331498694153391 0.06560816744612553 -0.04960006881293961 -0.009139687023080819 -0.2051734640524434 -0.04246228208855678 -0.02565521391507293 -0.04106258807172579 -0.1061190187949597 0.2042916407424283 
-0.04110337297519046 -0.03067014841427577 0.0426056226981423 0.002147392163377084 0.04453155800729101 0.009095394249913137 0.003131369104460007 -0.004041417880510123 0.004792791403329547 -0.05299560265394895 
0.001229346806641766 -0.01889926645085627 -0.0004868347125489891 -0.01480518101592696 -0.04646192147298563 0.0005039853843045325 -0.04754033855538199 0.02649371641986861 -0.04281798103928942 0.02730731362703968 
0.08007307069281337 -0.06809988032460515 -0.04069457838354173 -0.02795537021889512 -0.04842971082335679 0.02169583798482213 -0.04159842559902806 0.02808191048033318 0.005952072083778009 0.03906496731788556 
-0.09338584414988924 -0.03965698994232368 -0.01644347580774462 -0.01447416195360491 -0.006291357995890399 0.03191870955491341 -0.03645581470328946 0.08251849692868286 -0.002102108121118833 -0.04927983281175632 
0.05267534448747544 -0.01044296700531681 0.07369629583779833 -0.004620199131350108 -0.0703277405197523 -0.1004543988285061 -0.1022136713622107 0.07421296696528741 -0.02990769883371858 -0.03294779630132428 
-0.03484388708162201 -0.01059890530212677 -0.003924352600380284 0.08082514874438328 -0.1337530766853159 0.03307378167218061 -0.01536303228772681 -0.1170894937981501 0.02423507196121229 -0.03888279513925288 
0.07289658644430443 0.1273631173304902 -0.2929041763269922 -0.03827911129144279 0.01347384896975583 -0.01844899012310877 0.0666349462900723 0.01172571715545542 0.05885238305714707 -0.03619190011784935 
-0.008714702899715496 -0.01599711756354356 0.1344298749231659 -0.01233976391371925 -0.05530875216904065 -0.1169155724778139 -0.1989111249082762 -0.02286541557562136 -0.107957728741637 -0.02512052166971749 
0 0 0 0 0 0 0 0 0 0 
0.1615928516191729 -0.04709713583592757 0.1243260000086332 0.03231605332587632 -0.05169280949104865 -0.06780232711995769 -0.01949868207355914 -0.006806834176865534 -0.00783178477041215 0.04542833825673782 
0.06531981640807775 -0.0687275469237939 -0.08250572035804977 -0.07533258778421718 -0.01705250961988825 -0.001192582777111597 0.1282263901373978 -0.04837241025049721 -0.04607511159242376 -0.02489632411551943 
-0.03578817623620382 -0.04023966358965192 -0.05153800455932263 0.008696548084936978 0.133530843702424 -0.06108609652464185 0.003271765457674364 0.03214126322250388 -0.02082957309945814 -0.0678994109824597 
-0.04715037512168609 0.09414704316976877 -0.00202046368733385 0.0007947169697098319 -0.003320248142654283 0.03811637118020541 -0.06113494995567806 -0.01079639350783492 -0.005292641788423428 0.01994159223713607 
0.03634318045432434 -0.004473344517453025 0.02045257367065922 -0.0025630475189576 -0.02672684507957148 0.01274880498168282 -0.04934578827510439 -0.01539609203638675 0.02405754078624909 0.04546152288629501 
-0.1637848266114801 0.04389178923956171 -0.001699389147050956 0.02422173169669397 -0.008471579214417702 0.009495755002895281 -0.01300927164020152 0.04967713387131661 0.01659733381749373 0.008759671650187064 
0.0800705299821428 -0.04859283532839428 0.2391248475198414 0.01381414377530792 -0.1868379189120995 -0.04048932948324554 -0.09706073924372538 -0.001854501098167509 -0.04452740384012188 0.02848144699565027 
0.000771749726724472 -0.08219103592581042 0.08638040656592691 0.01827590445296596 -0.05384651585736731 0.00624808544722426 0.006288090935366219 0.085722603307138 0.000552874883040623 -0.06512982208597967 
0.03901417051286125 -0.002613976531661636 0.04973542558629435 -0.0200533761673686 0.1447922428041317 0.01187860896947748 0.08999028060754309 -0.05581565485080498 -0.07159334313515384 -0.09196874618040207 
-0.0653077354603426 -0.1184458525908829 0.004021648229846735 0.01389671500849203 -0.1329784155973451 0.01587681998213521 -0.1087281477135287 -0.08443135584500938 0.0773744206069078 0.15987141900695 
0 0 0 0 0 0 0 0 0 0 
-0.06985493037153967 -0.01640272755395028 -0.01661658895275284 0.003590366828715683 -0.02509162147264502 -0.04199612327147861 0.03670388032961194 -0.01048915688532103 0.04840645466551097 0.05626655205593516 
-0.08658941633180767 -0.00698305715078427 0.003556999746898332 -0.01310610372436987 0.01817515101352657 0.03138088544326741 0.08667315875098594 -0.06084533941587292 -0.02813370742142122 0.05816339498756758 
0.05042463491389007 0.0294829520289823 0.01337006980037023 -0.01044153941358453 -0.04354840827412967 0.04518140553998454 -0.1175117261346387 0.007665529647005937 -0.07262150759817637 0.03019615579902522 
-0.0008345800915284146 0.03577822726147622 0.007334746217975904 0.01593423300934787 0.03496872030231282 0.02846713484528847 -0.05336622162667916 -0.02060935845742025 0.0092353314791548 -0.03051826086355965 
0.0106936395508332 0.0122051004636053 0.03692235504220577 -0.0008838430197971746 -0.007814197562707329 0.02176277200631505 -0.02837052705992355 0.008495565927792078 0.02167264869813881 -0.05920620637320174 
-0.006060197568922141 0.0133108563687074 0.06131542696831072 -0.003864826093106139 -0.05993702891729533 0.0181373716644526 -0.03685889695553324 0.02641703297242436 -0.02767307430443904 -0.06410964737024674 
-0.03891311833936644 0.02041006251845211 0.08082677881234125 -0.002155894455878517 0.1281619833440552 0.01373413101210961 0.02552930404787805 -0.04224745859949695 0.02732681846053649 -0.08793070654369375 
-0.0001057387080929714 0.07658984627987846 -0.07551885418531326 -0.01346178704288403 -0.04587629451425428 -0.04932209093797431 -0.1204754729666341 0.02781785254367071 0.06970490514552623 -0.08005958921715409 
-0.02091071518114692 -0.006100253315009604 0.005276690643697859 -0.03104020227784655 -0.02084113653058554 -0.04771749135165028 0.1295371134938232 -0.04046664994750349 -0.0589214252422336 -0.03092710906327951 
0.03487742147183803 0.1294680506144923 0.1408633448467269 -0.01983543501413946 -0.04550852887219179 0.00213642897029763 -0.01478761607821298 -0.02531831604088669 -0.1217866682123908 -0.01055508644841581 
0 0 0 0 0 0 0 0 0 0 
-0.03952715818856487 -0.01117363237462498 -0.1346752330377789 0.01619467606157511 0.01054715748436699 0.01517920851466549 -0.03791231441921326 0.03924541118582212 -0.02244259008630114 0.08487678767956727 
0.09919632566548565 0.03028002575996764 -0.06630239550292381 -0.03408659931460656 -0.1756261381128434 -0.02134380587258949 0.09575674478305066 0.01702853015404176 0.007559103726343447 -0.06052074648355806 
-0.1108071547314364 -0.06128502366510383 -0.06468675435619929 0.0375067346319595 0.03620643832796511 0.005857088739162582 0.01577103651001506 -0.04920456557853718 -0.0264859394447177 0.1790514512345342 
-0.03888302608073693 -0.004852731721242304 0.01326938621758568 0.01902156073161361 0.03061477853725944 0.02725703133183919 -0.04820697439287551 0.009210835989262558 -0.003277858936940705 -0.07121681001925043 
0.03946870227677687 -0.001318923612549088 -0.06791850554081864 0.00320304433711211 0.01766139144573651 0.02727622442545102 -0.02698661632952386 0.02221458779056121 0.01184881601664389 -0.06322711531350562 
-0.02701005853643132 0.01844283177792131 -0.03770004170878512 0.01038318730064826 0.003883175131622592 0.03286606961847354 -0.02078019821143302 0.05225009859254194 -0.03197985981973146 -0.0931891622484835 
0.1306553415966496 0.02033572954246462 0.0302501877246184 -0.05993878170761884 -0.01404503728938675 -0.0867555027667621 0.004240107815425227 -0.03812508904315818 -0.01439521209341606 -0.1220417867751557 
0.03329445658854145 -0.004330277109517884 -0.01395898783786296 0.05502289297497102 0.006074359692391282 0.02340638712450585 -0.113209256497604 -0.08380056308827938 -0.07629518983170365 -0.08348624848557974 
0.01719304171990614 0.02332958394761347 -0.04045575519432155 -0.07034675660495666 0.01370145257701954 -0.08042450755053041 0.08007130173029342 -0.09178747477784459 0.0297843361853961 -0.05134863320049394 
-0.1319818315228451 0.1102744421338918 -0.1041544366270338 0.02414085511972676 0.0250878226976824 -0.06778262405152201 -0.06286861303961903 0.0323124264019428 -0.0375090289301545 0.06077553098588289 
0 0 0 0 0 0 0 0 0 0 
0.09154319953378449 -0.06983376779638263 -0.01231441838676157 0.01411110770190351 -0.06787134279354043 0.08629897351570416 0.01669271165091652 -0.03216035575942591 -0.0252219250758724 -0.002282086926701284 
0.07323602846623364 -0.05268659108911275 0.04237603529432942 -0.03066205716577899 -0.09171552617511797 -0.007736399067812593 0.01471853859086121 -0.06507738677713718 -0.03093352703707805 0.06489617775377073 
-0.1444647914804513 -0.07026954792716976 -0.03118444576219275 -0.01913624696695605 0.05419988030737966 -0.04152790861781139 -0.0281278781690554 0.05584513831891155 -0.1098541416249955 0.1248258456830633 
-0.08934477168941674 -0.02370751784766728 0.09320937285386742 0.00408965042650432 -0.05704227956152601 0.05105492272977212 -0.06893224435085939 0.009771680219954323 -0.07038833106119449 -0.03065854269935266 
0.06469946174450401 -0.04989281287742028 -0.0258316414607566 -0.003478039173120623 -0.08240296955138646 0.04316285672128406 -0.04133887329368265 -0.003613014650486205 -0.03716457954652003 0.0167702604992747 
-0.09275288552631908 -0.02187417837071329 -0.03459059132048934 0.01156560266103244 -0.0517877542877819 0.05922264564122815 -0.04296388145941998 0.03810967913587494 -0.05405434826333023 -0.03052990312860306 
0.06771292549031684 -0.09262632520892014 0.1246618130392397 -0.05741726311617817 -0.01576242698864521 -0.1390773333488477 -0.07902774573553668 0.05921391077043846 -0.03938579631305346 0.1014168828957793 
0.008012360999069199 -0.03131240276131319 -0.02659895678562391 0.09574601667968483 -0.08622207064871497 0.0338913681488245 0.04709902212736748 -0.09888351180770051 -0.07183402144084952 0.01208946299892683 
0.02683866361919289 0.03885628506590295 -0.07608655430016883 0.003274337907658255 -0.05845252997465934 -0.1801838441609354 0.1060183681074294 -0.1126057866767835 0.01712794685619824 -0.07981895427192713 
-0.03622478444885158 -0.04827122265016288 0.04069363808288228 -0.06983625229102004 -0.002021762547928204 -0.1810944950845523 -0.05644877353210104 0.04330407170037395 0.03633111769866137 0.08147151837380538 
0 0 0 0 0 0 0 0 0 0 
0.1425563464635287 0.03374068518248819 -0.1038076778719545 0.005829771788922195 -0.133255907313156 0.1471458791268939 -0.0177225741494563 -0.0814606406581871 -0.01356875093990826 0.0793967954161868 
-0.02627005781876204 0.09781199079951663 -0.0682675064945053 0.01936944574186897 0.1019997816983054 -0.03696066064654208 0.1392440114087031 -0.06484564406109875 -0.0002386025482908939 -0.04427389062309429 
-0.04664052479348469 -0.07137581055060227 -0.02888142456971707 -0.03867813450108214 0.06698060083668124 -0.03485651628663779 -0.02502116176921247 0.09106942308196248 -0.05324587917064241 0.02840849310803793 
-0.1669526827201191 0.00468576373496238 0.04314421642120039 0.01246635693428485 -0.03883006625718038 0.01489057512899555 -0.06110134782317356 -0.01037634847193051 0.02663269074210028 -0.02936185881353327 
-0.007989060502923752 -0.03944092689605262 -0.01082396759332288 0.006046660397241092 -0.0689524142631105 -0.01003092184733886 -0.03742061632090409 -0.01610269876913135 0.007791615187412886 0.01564273327860054 
-0.1529807099928002 0.01133903083976687 -0.02446670384882839 0.02756783588747534 -0.05162529973939557 0.001305256498917352 -0.02447511118939486 0.04679913715591465 -0.04395126856152753 -0.01440621202794407 
-0.0383590043364999 -0.184236240054658 -0.02050300945371511 -0.007113362375644809 0.003261163957953291 -0.007721976505403795 0.1449058949885123 0.01653987386926413 -0.08620432006643033 0.0581183231333714 
0.02369794332252764 0.136945480400516 0.01495321352260081 -0.07093020473130231 -0.2413341083841345 -0.01754319806162965 0.02469622968825026 0.02480637518971305 0.0728224540971884 -0.1171395646039183 
-0.06248364045623855 -0.04903932704070586 0.08021176969854756 -0.01069839322740848 0.02600344122304628 0.05285947662055952 -0.09436886597161284 -0.09184048764938392 -0.07491891987515449 0.02462041242336743 
-0.006243544472531016 -0.08188312701749455 -0.02599882009713777 0.08384600564658327 0.0881774017620772 -0.06652390953218194 0.02772853499466633 0.09670272781089038 -0.03305269108093917 0.0433363162440784 
0 0 0 0 0 0 0 0 0 0 
-0.08038032890639343 0.08394422501884366 0.002952051008895806 0.01346250940857021 0.1116092126951331 0.008629861116517907 -0.02967034117284027 -0.02276772732492829 -0.05814248194694657 -0.09162782773874233 
-0.02734035375182227 0.1057889824562767 -0.06360086236297934 0.06317025296802115 0.05263115728202097 -0.05473342437272251 -0.05057769870274077 -0.02916427521880455 -0.009508725143359337 0.08712578004128228 
-0.02402632874052644 -0.04956504332722097 0.02343087678455296 -0.01533407760428883 -0.03771302820961851 -0.0102393986491919 0.005659475522382107 0.00209268973102367 -0.03424556193424011 0.04514232690614702 
0.04347983388833299 0.06254239531574669 -0.01656557131003603 0.01732929381953761 0.06058360009571279 0.0074956469225785 -0.09286481637557374 0.0008811228891260109 -0.01541947037537754 -0.003611025108239772 
0.04563308945343322 0.004652792481667381 0.01940306554825853 -0.002739497353151631 0.004761330444378528 -0.0001082566544777383 -0.02391510737218801 0.01172100309657118 -0.003921216501489441 -0.02882414570228981 
0.01891867963508147 0.008432823966560917 -0.02795546264619874 -0.01655275820146805 0.000904638601282804 0.0246495149308201 0.04206734347492425 0.05357437534276391 -0.0669154219561883 -0.04505951841074977 
0.05912978259764631 -0.01943080604610023 -0.03231497442149216 0.03251249612915989 0.02894985213873663 0.007930265438678424 0.1565009471349546 -0.01782169093679516 -0.1147362471688421 -0.09485490853837902 
0.02207397700837946 0.03460074398969975 -0.04944469498830905 -0.0297712318654542 0.0865626785629573 -0.01310069491496042 -0.04950484693368345 -0.05024885731567215 0.04703275383624349 -0.08133647661570526 
-0.09170304393569874 -0.03240717051993636 0.0575263770389834 0.02569787357791962 0.03526777330867264 0.03390029347606765 0.0165505824744479 0.01965157552232486 -0.008692449237514794 -0.01749008539981942 
0.170830299451558 -0.02550637251224214 -0.03717770903764238 -0.01817168943596807 -0.06673337918748151 -0.08281227920282477 -0.04328651804265737 0.07996550576211078 0.02162205296287529 0.06009146297729015 
0 0 0 0 0 0 0 0 0 0 
-0.07237453582480433 0.1627705750651299 -0.005867997874062357 0.04087621577182823 0.006025736475897975 -0.02132917696329252 0.01901197071263053 -0.04116185960262899 -0.006722656942086698 -0.1121495765878357 
-0.1460905952837798 -0.06838051919947039 0.01830055222406439 0.04642468727620043 0.006486745047221508 0.01673484210855945 -0.07184122846448633 0.02269446561641381 0.005908901231822965 0.05116812773607703 
-0.03998604534831156 -0.01757341101424434 0.02007660390409586 0.02220823449222525 -0.01998818349289153 -0.04657125817425535 0.02901974995076877 0.01640787619248157 -0.003953869995878245 0.008540550569244519 
0.02475100621963092 -0.006903066173852186 -0.02880955114572205 0.02630513574688757 0.04371613738805406 0.02549717610304176 -0.08201679161357427 0.0008015050874638171 -0.006681352280775234 0.001343361013219832 
0.02188242947153909 -0.03393224969120716 -0.0003187398246549723 0.009872697747573881 -0.02293261780388953 0.01057363768637919 0.0008579457389370816 0.01616437406934725 0.02272403420206972 -0.0408183435098641 
0.04230776875914274 -0.03328783476248972 -0.07444598172121636 -0.01314652696972351 -0.02019721088634946 0.02695552252352645 0.07811660396117304 0.04503934943484562 -0.05420759824050053 -0.04037749064159539 
0.1044437190828579 -0.02818692927562888 0.06477060881404054 0.01351268485326285 0.02292918012082298 0.01811936298525979 0.1665021438353253 -0.07024272060405695 -0.103887928775194 -0.08443418695006866 
-0.09709230737301089 -0.03705255814884136 -0.02137883117020334 -0.01543587173863667 -0.02128467246918359 -0.02434513486527476 -0.03408625938966293 0.02143939654485659 0.09734505091253963 -0.1211938020132904 
-0.1297389426205282 -0.07121868691306391 -0.002819421188299412 0.02967718598216411 -0.01659761716151166 0.00187921085074423 -0.04870805017169676 0.01913679027670989 -0.0340852572570479 0.1543073714759121 
-0.03381600636308379 0.03026028134643546 -0.05984959923592988 0.04328162043351672 0.01726602406631522 -0.09617443768115914 0.02988832094329142 0.04305963840911023 -0.009342011245436037 -0.01914371612045191 
0 0 0 0 0 0 0 0 0 0 
-0.09394593117550985 0.2011215679764455 -0.03259825094890035 0.04979817223418757 -0.01610576763632108 0.07513770806192209 0.0124137424797255 0.04029829345776896 0.007532062419668964 -0.05598062077337711 
-0.06234345616018283 -0.1326182096274706 -0.127474286774237 0.001735416282610219 0.03446116866728235 -0.07454359301407008 -0.008764974666009073 0.05303794463781213 0.01759859053438019 0.09667182405153711 
0.1423195478540193 -0.0450671949458606 -0.02838705295795912 -0.00738219728244978 0.001588279137746416 -0.003040008297465223 -0.02391380092042906 -0.001459070822692497 -0.02993249961829557 0.07454480441362195 
0.03631974941139207 -0.02088749915705076 -0.00885614832062798 0.01520005401271881 0.05194289922757793 0.002379550872897496 -0.1102274325745896 -0.005882927107923945 -0.02009831003150867 -0.009717818784153577 
0.036603513627923 -0.0179884128474045 0.007036050611411133 -0.004321161525146503 -0.0009447735244080607 0.001455651109138009 -0.005772732780843165 0.01347257048364019 0.009848716345821238 -0.0654561149395933 
0.06242010077763743 -0.01438526416061505 -0.08973030552386782 -0.02512207990779762 -0.02404217105380998 0.01341963764406627 0.07479408771136027 0.0539840767662834 -0.05242525711417045 -0.07643898716345447 
0.03707411621360708 -0.01728211045497647 -0.03322933843803242 0.007345168106745746 -0.01146674148385234 0.04213372616648511 0.01223306082853893 -0.01376475972302794 0.02439814661878243 0.05420958413777059 
-0.09712571499980015 -0.04495997870070405 -0.1141433129786226 0.04763919251461318 0.01342666745171484 -0.0575157429204597 0.0301852781147766 -0.03577644458111619 0.1841609005970548 -0.1414638722774888 
-0.08076010800697041 -0.007246929977450027 -0.07316829936658267 0.05227361918091884 0.04604445319657625 0.0142940201929996 0.03152048399269167 0.008077706989044746 0.05419267826530556 0.02082485212484389 
-0.03996250167279428 -0.1357771302572867 0.008813538148234054 0.07204412305862219 0.05288188504144761 -0.05968136501337202 -0.06847232524447842 -0.01423662100474987 -0.04755148882530587 0.1339644339922007 
0 0 0 0 0 0 0 0 0 0 
0.05308317862154559 -0.02896375088193774 -0.02871823691005002 0.009015903882930706 -0.05041463965992193 0.01815453320298563 -0.06030487141621963 0.08241113697120801 -0.0011178201449502 0.002101613763226032 
0.02960125853589448 0.02837483233818705 -0.007963153802976639 0.006720569260406589 -0.007300541123040306 -0.02636775753462118 0.0879229978329138 -0.009897957016817773 0.0207070951269827 0.02546226789188118 
-0.2016810909221936 0.1776706806980274 -0.01859582000750989 -0.0129969727676175 0.03423159256555802 0.001428645348045438 0.02294501868474813 0.0002623522542554678 -0.04103307949277393 0.08684722428573688 
0.01251844803683261 -0.01378736056928133 -0.06447226184644106 -0.005915457949396168 0.06414132670997297 0.03600587569733581 -0.09437953300014622 -0.001555515825503317 -0.02988114159944382 0.06285647820641388 
-0.004252764646143384 -0.007847856870019872 -0.02034717069191627 -0.02542586025342945 0.00552913848867703 0.0417595047958698 -0.005416575475901695 0.02273598575246778 -5.95025402904697e-05 -0.02184607645012675 
0.01471716294406446 -0.004022905791504279 -0.09082357908573864 -0.04674216191799641 -0.0237090664874539 0.04936755926539834 0.04875052561528393 0.06793150167720011 -0.05522680771524655 -0.05090925963116877 
0.01458187188073745 0.0135117994724876 -0.1266281243204077 -0.02213950017299698 0.2049226323489412 -0.01852662030747991 -0.01666251305241497 -0.07066672548837025 -0.02911031316313712 -0.06286397179347368 
0.07987472878123142 -0.04711452722890981 -0.06481224799992749 -0.001088722880783143 -0.04297679100208596 -0.08163433061744654 0.1176700338517538 0.00773561414309336 0.01609766738391914 -0.02787207883150145 
-0.0256204371899734 0.1331170024628331 0.02615727553777759 0.02312810056043179 -0.02545214645804164 -0.00989760089566202 -0.04309421491416336 0.04472154106456066 0.01571114446328838 -0.1664247867613284 
-0.1347742490382355 0.2151818782155757 -0.06552629805472444 0.02945119030917826 0.0733133120536355 -0.0552743781200431 0.02375670112229858 0.04805958769941462 0.01782859809008955 -0.1534974313920589 
0 0 0 0 0 0 0 0 0 0 
0.07539332437294587 -0.1083970300544279 -0.01213545493194276 -0.002744794983968101 -0.09979410304452394 -0.04997019757176409 1.030349694603594e-05 -0.08972996866494515 -0.05348429567477395 0.0827825400555068 
-0.07120371794192855 0.1673929336020804 0.08197086469328367 -0.02668266332022111 -0.05499464356762935 0.09751556193343353 -0.08698490637268054 -0.03583872579822199 0.03694373143719298 -0.1342954789268719 
-0.00365046667895573 0.0431380077330543 0.004776475812658461 -0.001324038003836287 0.07087639287320242 0.01309675097416191 -0.06684088110629005 0.0215218428718155 -0.008714312324451029 -0.05576427269432493 
-0.04055957460527062 0.1169950694098255 -0.0008213570390189233 0.008719667150911959 0.04870873170257147 -0.03074715658334857 -0.1089486030291416 -0.002086278942783816 -0.03602663631670387 -0.005748609787278262 
0.03826845000628091 0.002818109792620294 0.05437967896771086 -0.004922361420493103 -0.0001620608643144572 -0.06864400575847263 -0.07892080823062622 -0.005859325342056559 -0.01393006901154621 0.0286886494327753 
-0.1226518459421364 0.04208364437643213 0.03291980272999615 0.004870208274139694 -0.002542205512645365 -0.05335494204068146 -0.01987580586970896 0.048485707530502 -0.04400292419046852 0.03213007105775376 
-0.1133505686599806 0.08901763661608562 -0.1373457291033693 -0.03660677546976127 0.003336212472793275 -0.06370271542742888 0.1141107387860144 0.03793933718399307 -0.06045104635009789 -0.1265825918403405 
-0.05715139917103066 0.08510392382063557 -0.06109155331550832 -0.01123383613915613 0.2068769173645878 0.02007522755897623 -0.0761197089166499 -0.03708395951222818 0.01444550579338464 -0.07861764936842008 
0.01628528503045181 0.05429379056951253 0.01053124119073305 0.004560633431249043 -0.007028971862343585 0.02830995335448756 -0.002270143974974023 0.03743134720107046 0.1048075500898415 -0.06704096190623657 
-0.008828824848150424 0.07853000439498635 -0.07531374710761327 0.06710785564394259 -0.1659352006825048 -0.05138507443854577 -0.02171632192905645 0.05123357778515072 0.07284264452348291 0.0837068302444938 
0 0 0 0 0 0 0 0 0 0 
0.04974905579913847 0.1108924668488681 -0.01371366870861482 -0.005530871164929232 -0.2396415112294119 0.02429587538702786 0.03064538305435549 -0.07949802552623143 -0.1279043488369253 0.08259795261047691 
0.1118131729527926 0.005445290988660059 0.06546701230876006 0.04170693187335041 -0.04369280729535285 0.01959990916203846 -0.01221704773084213 0.0006384359993669386 -0.01096634268227029 -0.1075307812260569 
-0.02328190451591601 0.01746388036209307 -0.04945244019351721 0.02656005801935852 -0.03108073564010658 -0.04005252743233222 0.04789892473014774 0.02586936753261506 0.0007074778369886374 -0.02998540029565332 
-0.05689233954526941 0.0685502259369964 0.01192900691959705 0.02210877713944636 0.01820098000033493 -0.0479105342370223 -0.05927894360112016 0.03207912090238353 0.006089599267559681 0.01450835739398545 
0.02611655218369937 -0.01679622951004483 0.04161021296500469 -0.001200599386398097 -0.01739318428234207 -0.07427038172418172 -0.01512857678270382 0.0234906254390446 0.02913769070069214 0.04621016139289648 
-0.1083100009168564 -0.0325031973716566 -0.01637555265594154 -0.01240408346008373 0.01696661923363635 -0.04942269539892532 0.04724757222438129 0.06098326049855591 -0.01312160016000258 0.05798470134696106 
0.08578724711957116 0.1366974407164372 -0.04007913458687817 -0.03445915663386597 0.04042725743902875 -0.0513507427234555 0.02252932391979615 0.06784823338733699 7.130147616069089e-05 0.01694161232705625 
-0.1158652315692754 -0.1011621336532565 0.1049566433012054 0.02131657060143548 -0.03516540001826977 0.03967911433145509 0.04244382222091481 0.04071060449169341 -0.01516712975463611 0.04176989134760813 
0.01109565238508962 -0.007605455141726923 -0.02909594646951638 -0.04355093438234819 0.02568788910334738 0.07490958211917795 -0.06681446158205498 0.0192407894540128 -0.01579101619965823 -0.09649429613350949 
0.09975213591498905 0.06481727025155701 -0.09464086105432921 0.01652162736322562 -0.07836256337014176 -0.09720013515105469 0.01441985947642687 -0.01363856247904513 0.01934277467568053 0.001210993086230686 
0 0 0 0 0 0 0 0 0 0 
-0.1386625849346687 -0.03585973788784031 -0.01481962848623557 0.03855330191628314 -0.1151435939366171 0.03596614646365937 -0.1287934138436147 -0.003675118870683758 0.002766969407328955 0.1440062790626504 
0.06442131389815735 -0.03884201028632413 -0.07096353122810874 -0.01497337825441067 -0.06589758870403208 -0.06589206240676648 0.09270474060578876 -0.0272154994521071 0.01311272154074894 0.1693897984845083 
0.01439378430788567 -0.08260631276342893 -0.05563718257797385 0.01303903607275417 0.01498946300839606 -0.04633382515553396 0.0488379999583351 -0.0008591902383129795 0.003503231214493985 0.08706682233114296 
-0.03019551667361233 0.03161818057116085 0.01708428445371429 -0.0008751911582637789 0.02015128864971373 -0.0114969192354088 -0.05101551826218857 -0.0006271029371410587 -0.007707734991316087 0.03910689016703208 
0.00482145900267592 -0.01438464660183497 0.02562898988139093 -0.01882039751091592 -0.001471962219008446 -0.02092101053381818 -0.004152353689721439 0.005960129994223322 0.03092456242382101 0.0398875134727729 
-0.04267117130415808 -0.03639320425817226 -0.0591269393579025 -0.03554758079283513 0.01003995634538048 -0.00767701667325828 0.06535157704628168 0.04142763873232546 -0.03101026736999461 0.02026498850277247 
0.01283435006834068 -0.1683789010622941 0.0250763717409251 -0.02061165855520447 -0.004537734854095573 0.00933777024440016 -0.03247719274976571 -0.004758249219510022 0.03520418702269722 0.07872497459885727 
-0.06703958313234389 0.004312182422044552 -0.01982447836343775 0.08609794868020891 -0.06720261284554392 -0.06246667476420679 -0.07629348241610469 0.08462855669132373 0.06241590248916511 0.1091017576438593 
0.1016378713330716 -0.1035559538843502 -0.04965860076253176 0.04457622931349006 0.07196608149763865 -0.0536258907388999 -0.06119059013145866 -0.03112300312832499 0.06267967036322407 -0.05391758686956839 
0.02968962059033572 0.1014537940794882 -0.03001053853390916 0.03323271329807585 0.09950227559773137 0.004764540682596427 0.005899993612610815 -0.06305431720184422 -0.04833777315977238 -0.04289283764270743 
0 0 0 0 0 0 0 0 0 0 
-0.1168801506661214 -0.001710842839745508 -0.1135750386553366 -0.002861658480363283 -0.07478308389699539 -0.007951660558632851 0.06849335295774969 0.02079374136476848 0.07794281359889178 0.0723968985955394 
-0.1781358132959862 -0.1011737506448629 0.03006766265439152 0.06770899877385073 0.04164527384097361 0.03964305976223756 0.07773933596292419 0.02892627934726329 0.08059264096546014 -0.02718095150591835 
0.03483776701152035 -0.0003994677358463873 -0.01252864527748064 -0.07666049776491145 -0.06123556430498187 -0.01379538208255253 -0.03158659056397804 -0.03365513638473644 -0.008048847412093918 0.02146474286324905 
0.05837015865021871 -0.04533051283141843 -0.04898297926211066 -0.02429427463672029 0.02391214404140064 0.01051009719436511 -0.04446706973184601 -0.02340882838565121 -9.313796552561066e-05 0.02983942726655371 
0.04502945974869244 -0.04981460412676827 -0.01141999187013533 -0.04563508242845881 -0.002326732174509607 0.003887501159043003 0.006571474995616971 -0.00904560569059585 0.02965427772201249 -0.01049263084710328 
0.0754383715856536 -0.03583294405593774 -0.07669103874918155 -0.05689417774232324 -0.02984198858118603 0.008881137699275692 0.04866570776069305 0.01705649100368113 -0.0299825249578662 -0.03836033249729327 
-0.0259515472112274 -0.05225069723775579 -0.1880907063795455 -0.06603812973503445 0.08939555546201651 0.01203446067436076 -0.006804403612238164 0.01004679643367767 0.05458955206575454 -0.09396760099367478 
0.03165062706147945 -0.07519989857909957 -0.08764796644537973 0.03538361575778197 -0.02962545264833449 0.07621843772257791 0.02847511408319535 -0.1886840969648123 -0.05651757457440384 -0.02764237824405007 
0.1902858947730483 -0.004109392581422525 0.08231730559243788 0.01447806861613632 -0.04846069638109246 -0.0419678118750856 0.06982594124136576 -0.09596434617865261 -0.01595573968298525 -0.1597339114965015 
-0.06209750777049692 -0.04229753129283072 -0.1224663048175863 -0.01876267716506055 0.1490060612547986 -0.002937373884486771 -0.1148143108630625 0.1080275174863338 -0.008907865703713155 -0.04014735560918022 
0 0 0 0 0 0 0 0 0 0 
0.09361438773984451 0.02634951005008848 -0.01784624262518179 0.01590482466507515 -0.1823467321314781 -0.1453067066414484 0.1549334190805791 -0.09642822168687085 0.005925546372227059 0.1465753906108188 
0.09751851912265851 -0.03514754074285857 0.1842101602675366 0.005909023175354921 -0.08222514823541149 0.04271859418359984 -0.1076517870402413 -0.07239462224325985 -0.08892728908644806 -0.04809715815383656 
-0.05297229396108834 0.01161199381633434 -0.07205756901935169 0.02210323808111093 0.04087381547226441 0.009751722093977499 -0.06207708459370221 0.05868798340547542 0.002075381454000823 -0.01677341860245034 
0.01078889459582362 0.08198599980556118 0.02181458513755862 0.00619171654539514 0.04077777003061143 -0.04718001227281657 -0.03079499624085465 -0.01018846726680513 0.0132852333214025 0.02075449063191388 
0.1222826126880835 -0.03353215317483007 0.03372659434509391 0.003377416076471291 0.0121866422417712 -0.09293984672847415 -0.03676168208831108 -0.01746579956269844 0.02654688528815565 0.0604797652758463 
-0.07851899448048119 0.04272969861509739 -0.005450170671830463 0.02736011798706137 0.0103125244724163 -0.09229543877890664 0.01017850407859602 0.05404248261664666 -0.002889892350433464 0.02353980600889682 
0.102903608898445 -0.03965356701446157 -0.1896150331435467 -0.02551862602128377 -0.0924768048946631 -0.07829706465629718 0.04804876305508632 -0.01941255511811462 -0.04326089488418734 0.110859790717907 
-0.0116504011787966 -0.003262906169292505 0.06578320546324311 -0.03541567299063045 -0.04890459730390195 0.07181851160073502 -0.05948424536328522 -0.06971800329866845 -0.06825496874705522 -0.0846856122380602 
-0.07720381020542723 0.04194624678663314 0.004480350988767673 0.0009140322308115121 -0.06789201259166869 0.05488810909573039 -0.04817806054134582 -0.002475005838758266 0.07074282602664106 -0.203128576484074 
-0.01472061568339211 -0.0001524278610807191 -0.09121113112823293 0.06277269701068514 -0.01383619591394778 -0.04803039677143893 0.02778431193978145 0.009394815590188208 -0.03602038831852059 0.05860142945564643 
0 0 0 0 0 0 0 0 0 0 
0.02399023625821164 -0.01972803458187726 0.02926075260400257 0.02351416568118518 -0.007295470435096491 -0.04427716792196162 -0.08986500493601481 -0.02515713259911563 0.01720231526743642 0.1449200626230184 
0.1110409370350791 0.1174816686894086 0.08679066996007782 -0.02430251060833031 -0.1296166170061355 -0.06652340461869807 0.1615065538604858 -0.006167633995958361 0.02595429276291047 -0.06178310090227856 
0.0527209089136099 0.02379190466462464 -0.115061024131781 0.01297328082471438 0.09351403697484402 -0.01660139163814047 -0.008988696372411604 0.008235684467467112 -0.02812405512636421 -0.04964673993759786 
-0.1009427945062276 0.05160037982031159 0.02542068664338084 0.008577845934805815 0.05565860466650483 -0.03286052298650442 -0.02381836467171659 0.0447091684861927 0.01734405494309008 -0.02622159621486772 
0.006479699539914223 -0.002223773196876927 -0.00313111853388743 -0.008598810697718543 0.06162381449157932 -0.05017408743108034 -0.01024648789480028 0.03538465537886978 0.03648143002411789 0.02619553680586888 
-0.1434268952228481 0.03526698670181282 -0.04177231067472 0.004715903039029059 0.09496051905604054 -0.04181153552069559 0.01374207072877294 0.06022203537282967 0.0108126094619267 0.0109626706952046 
-0.03439233658584433 -0.0004126078456800234 0.04323627976188707 -0.006901033774878744 -0.06293445762682021 -0.05154241085046962 -0.06449343507852909 0.05466269141392269 -0.01247461282889303 -0.01450633564568464 
0.06253660467456865 -0.07386319201453136 -0.0129603838576138 0.04494523217825904 -0.1306509314163876 -0.03471146358700897 -0.02130898049119732 -0.05418572792601577 0.06019327911558988 -0.03400328658947311 
-0.03491365547960201 -0.1089364101505985 0.08101454090428496 -0.004845657007011703 -0.1385604098029761 0.04417872224028228 0.01166296439908328 -0.04819163840938537 0.03235718373458995 -0.1868666984279725 
0.07477434179473635 0.1591216693161518 -0.02742332832133139 0.006130423933625229 0.003835019848809721 -0.07953263835011498 0.007107907213564027 0.02755916098369815 -0.05464367399162068 -0.04196876912910643 
0 0 0 0 0 0 0 0 0 0 
-0.008930313818143571 0.01801862399837888 0.02760371815517357 -0.01946353174426605 -0.1856091456377756 0.03020364577365973 -0.1026579674861254 -0.02717327715211049 -0.04615246182059723 0.0871242935703498 
-0.003190173644826666 -0.07147449409256222 -0.0005417775164070915 -0.02300655370374952 0.1060614515608811 0.05133302163434171 0.1629978626861865 0.0003687257015707691 0.05288812027198019 -0.1059789184514144 
-0.001744193993872887 -0.01234428350516872 -0.01984505941351326 0.03906156124666892 0.1093719882980843 -0.003363162507120158 -0.07757518067357952 -0.03850320217643114 -0.03135233781670946 -0.05386216790846134 
-0.06638121344100707 0.1256865514766501 0.02095996324754867 -0.007742930572229792 -0.001057368041048553 0.01256359828941196 0.001084304639609778 0.008823009716635357 -0.01718649464798675 -0.00891960021166961 
0.001999631337200256 0.07891140214949244 0.01620090539885156 -0.02926367087366129 -0.02125568062872711 -0.001978544132903363 -0.001163594364992602 0.01542211501252432 0.01736540198399032 0.04397705456218225 
-0.1035325799077858 0.09157740432502574 -0.0142128504855295 -0.02220891793160892 -0.01673788041608675 0.0003632994909990041 0.003419606845675411 0.04275631424350618 -0.0211042373455892 0.009238735814249032 
-0.04039951603248258 -0.01881708356136494 -0.02348902408710424 -0.03392607133038043 -0.08679457168232224 0.005495132225941343 0.08133111676668528 -0.009815818680983735 0.1537733891220203 -0.04562516604452189 
-0.06854278739146337 -0.01284834995640015 -0.02268848899688097 0.06174582380614409 0.02574843392199213 -0.06444196349410576 -0.05152801537650575 0.009872913068312726 0.01287965936342444 0.1115542861583273 
-0.1579788050967056 -0.2189420821410594 0.2139547171782674 0.03542991361493875 -0.02328088589293736 -0.004642196093502106 0.02333213867790896 0.003394970259697992 0.01144031512421393 -0.03049991597579247 
0.06544111575754183 0.03166971836813031 0.01229710188866415 0.06121564341184639 0.02019483985690067 0.0259042688564335 -0.0124288800215587 -0.004300619790618788 -0.05764472829073937 -0.1674318693054666 
0 0 0 0 0 0 0 0 0 0 
0.1123713650077942 -0.1384537331057707 -0.01255678718346754 -0.008637074508650639 0.0007162724773827976 -0.1484292799040811 -0.03057287088756144 -0.01075126378066959 -0.02962622253933347 0.3768308171801476 
-0.1344401701996738 -0.07990408533228556 0.05579456509762187 0.002010245873707529 0.02586084832618502 0.07510384620363948 0.01921138069919018 0.04735971575565638 0.0391531734052538 0.03492070451955846 
-0.02441494403040816 -0.08691778917666128 0.03408635036586975 0.02073488939315993 -0.07526692817759137 0.01084339489577813 0.01799308589965265 -0.0221414320889283 0.05825306673922944 -0.04164366353589409 
0.04705405194317167 0.010173379064358 0.007276940439375378 -0.0146659338664864 -0.01777040933379254 -0.007856259757483159 -0.001618765674680547 -0.01947850183759891 -0.01499929644304814 -0.0176424535881314 
0.02810517388607233 -0.01929742011023082 0.03945877798064885 -0.03560618762637617 -0.04416720090713126 -0.02402645410026149 0.03108479287820594 -0.00181370680131149 0.01247855118277415 -0.01204285328542768 
0.02636106677442077 0.01661417152090617 -0.01124247074147679 -0.04503790057253634 -0.06459334471201446 -0.02208433958189711 0.05138057214477301 0.02912349542781604 -0.04341822054591297 -0.05527840465771366 
0.02642093850135395 0.08823978408160506 -0.0256104037686202 -0.07899011899320878 0.08168890047012714 -0.04017808423970375 -0.04691306665695207 0.02932323037129154 0.0277097917578252 -0.14270593734737 
-0.028988802523649 -0.01741397679639963 -0.03327517326053758 0.08361652290440327 -0.1477515383423262 0.04505254086720922 0.02916737271161055 -0.141399343980887 0.01074656360394752 -0.04596376745167523 
0.1124121068502392 -0.01118594403162404 0.1349342480852926 -0.05697278964150061 0.04856390017556658 -0.0557278067262644 -0.01689624555351527 -0.03032362836543452 -0.06586374317294383 0.02391431038697987 
-0.06006049928940029 -0.03965649591381098 -0.044145152322149 -0.1154174045817492 -0.07287134059669749 -0.006054846765458355 0.1075024884713751 0.03021431929411067 -0.04263100230965613 -0.03921597650087946 
0 0 0 0 0 0 0 0 0 0 
0.08296538840925147 -0.0485454225072352 -0.06373136995733164 0.05001945983067214 0.04615359725051466 0.04172127934046074 -0.01532544215465839 -0.1683101597554627 -0.0002876192512437826 0.01388936212443171 
0.07795721146651438 0.01433949098739082 -0.02862666153695015 -0.02101702731339645 0.06782293010648095 -0.07314624279406859 0.07824937121438807 -0.04729135907504334 -0.003962311596069462 0.03817087813925035 
0.02876546157932238 -0.02462688618756609 -0.02508166788965891 -0.003349503402689008 0.001734908106840826 -0.01049447935947915 0.02861573229911808 0.01609612834840565 -0.04658428712547467 -0.0227352096465142 
-0.1129248927958513 -0.03263707994619704 0.06985920137911335 -0.01007356862873953 0.06148037541116752 0.01239510289664479 -0.04104669859670745 -0.0214736802467275 0.030184373563827 -0.08006118136052341 
0.05095781786614852 -0.04970867330988337 -0.009044236835811601 -0.008487285892590639 0.03424863705686543 -0.02758992245902472 -0.01196505022500121 -0.03840162349482684 -0.002122719692348132 -0.007714951137669927 
-0.08092236176587196 0.01000877654149809 -0.0509236516046335 0.01850316229209533 0.0277640911100428 -0.04022606841593892 0.01671774329941836 0.03135381714843526 -0.05416442088867195 0.001580672820196441 
-0.09053739610084456 0.01984106755792488 0.02734480879056553 -0.02628566481850487 0.01610539783760533 0.02659626782830922 -0.03150063527418531 0.04096579838235036 -0.01101636984030394 0.1117017908598878 
0.08167450822060744 0.05666492180981037 -0.1017367827914814 0.08019015329029747 -0.0413428532251025 0.03489463486035251 -0.06954424733603894 -0.05292564810756555 -0.03841748882111969 -0.1111650543046963 
0.07615489964283596 0.1075150256696657 -0.03582878090123941 -0.08510211671422915 -0.03722036298723479 -0.01915949985054389 0.08249523598020012 -0.05034313406956269 0.0619028445020607 0.03531910482084871 
-0.1058931413167586 0.01656741983392378 0.0366711318780907 -0.001721285853675857 -0.09702546448481984 -0.03696098501242961 0.006697392078653597 -0.01925670500680203 -0.02988724194184841 0.1964249742559567 
0 0 0 0 0 0 0 0 0 0 
0.1073242859146832 -0.01814892144531728 -0.03571616151185566 -0.004051182296672061 -0.07373085267114157 0.0262706442306199 0.06421191582559581 -0.07516914673160249 -0.05186399676893898 -0.07431134049163694 
0.0038785765565307 0.1048664962971508 -0.00131994300580135 -0.0892761772090369 -0.03828850173188034 -0.007311078672644545 0.1078454784177013 -0.07610435228960326 0.03528221231558059 -0.02696376427887594 
-0.07808457659497089 -0.08305919605793283 -0.0621818719114075 0.00324415983495301 0.09778312579985492 0.01771529438621679 -0.03901019558198976 -0.001117934397262182 -0.02070864734200698 -0.02510213729683797 
-0.1252898968165317 -0.02939441429998703 0.09081718570797501 -0.02436026678499891 -0.05694520958473633 0.02293501495924778 -0.06253196227019753 0.0428412994742089 0.01500281654359487 -0.02875058976013315 
0.005346353289794485 -0.01745539503042991 -0.02063773599374181 -0.01806701458178034 -0.05023461993330249 -0.01170820092821019 -0.01157143626929597 0.01766389587552202 0.02263829747909708 0.05540347606237781 
-0.09631101567916167 0.01686652746564993 -0.03061266276830859 -0.0009200606933865921 -0.006539200897654767 -0.04132412724345691 0.01831832378774853 0.04687384135882601 -0.02494691603971145 0.04306163310036473 
-0.01046595286732711 0.06605833061305885 -0.0448561464583874 0.0004643096865908904 -0.06464808512707158 -0.08203815019311569 0.01375820288826323 -0.04447658818657307 -0.02637107525445944 -0.01895985557491711 
0.007389857779800359 0.07096009022650955 -0.08119339875184189 0.0516734576382826 0.04573437268160372 -0.01649626785404143 -0.01816602161188845 -0.0095963630537823 -0.02877650679348792 -0.05208872083058496 
-0.03460524365834583 0.0903354969676252 0.05473839006738211 -0.06332518750777982 0.0224302678698292 0.006035968669081616 0.1135264230547906 -0.01312990074050038 0.05448664608963527 -0.1367089720716442 
-0.117689797470275 0.002666751165901501 0.005860597836774773 0.02408169024418889 0.01931144526450736 -0.08527806186018634 -0.09983910571909106 0.05442122420574757 -0.0452934543503305 0.1971366620569467 
0 0 0 0 0 0 0 0 0 0 
0.09154329900416094 -0.02086629270504235 -0.05842761272083651 0.04215755817008004 -0.03502872193678968 0.01923739272877304 -0.02185192681119206 -0.03117076350957892 -0.0009085763801960733 0.0005565513442103353 
-0.1132487514602626 0.00682911377812245 0.05012617642697974 -0.02445703280605509 -0.05921209756356673 0.05478221098125151 0.1538485319290868 0.01914229965861559 -0.009001024255194005 -0.06205291745927173 
-0.01673166939964233 -0.1962674375537171 0.005405222349073684 -0.009028858645631348 0.00505847643376065 0.04381511890934183 -0.00685972443391785 -0.07948469502219796 0.03540458356690372 0.1812326726101615 
0.03372599924361296 0.0478815963003009 0.000890545690671889 -0.01955785386199628 0.02403677803963087 0.003820039442888066 0.01622205845440264 0.008488517627206878 0.008596466313927565 -0.007680573905571304 
0.0734622168515242 0.04351981135440525 -0.05106732600481205 -0.02587716091663968 -0.007366663847019757 -0.01553367956260942 0.05533222537354574 0.006237358234128653 0.03264238838890661 0.03017533178313642 
-0.01608735613601291 0.02767157248509915 -0.02571457198688885 -0.0216353208482125 0.0005241015138239983 -0.02064670210248246 0.04936765525142981 0.02785562771935941 -0.01454537490852887 -0.004205518725381555 
-0.04698156110236504 0.03956842230788795 -0.09693707404287874 -0.07447813683545881 0.05140593779496998 -0.02581631714078216 -0.1082209444441218 -0.06719075303274016 0.008239498948508369 0.1255718955826798 
0.05460048826712534 -0.01397356579428204 -0.04631490711431836 0.09879249066649855 0.1018574855202619 -0.1089952070517568 -0.1320582751752423 0.1203078374279328 -0.041663071160979 -0.03604260532834592 
-0.02827632368961879 -0.1888805366004167 0.1095167200554615 0.02881586967105247 -0.01802006604330547 -0.01593621082930443 0.1976544968375313 0.02482996108206645 0.003865198249055966 -0.04034880593302822 
0.006501630075791075 -0.008806155921987475 0.08537221899960822 -0.04006433114308304 -0.03128092182276634 0.02386298046899593 -0.08184105782969954 -0.09850684111505177 -0.06203667563673042 0.2296015170762322 
0 0 0 0 0 0 0 0 0 0 
-0.05184188825410255 -0.04401648667795716 -0.08205673475131563 0.07080096567479247 -0.006579941993160903 0.03280730020227855 -0.002671798485311766 0.0822092318781988 0.1027516603585795 -0.005973304198931798 
-0.06073978848209173 -0.1212544145165295 0.1408756685283903 -0.04432854828010079 -0.07799755936099172 0.009673815060861644 0.2095891435237228 -0.00619890840772325 -0.01121908892494223 -0.03341028116253662 
-0.03099028760523881 -0.03426106637780393 -0.01738116000922905 -0.03712641870241083 -0.02219038234034224 -0.01646911102120766 -0.04544247025028495 -0.04851893844010709 0.1183115119358486 0.1629113546636815 
0.0658032313892716 0.06400494047357587 0.01571264815376359 -0.003400780063073205 0.02952653860079296 -0.005096840959063111 -0.01009613515630252 -0.02039463589088057 0.004505884574059873 0.001454350164082113 
0.04626346690508283 0.02559545768045536 0.04471699885242898 -0.01758113448229967 -0.01037960097996478 -0.02056322517471179 0.009963243171664566 -0.00925677941352364 0.02870244635099635 -0.01232553955042852 
