solver_type L2R_L2LOSS_SVC_DUAL
nr_class 2
label 1 2
nr_feature 880
bias -1
w
0.03275246007717599 
-0.06387672858368611 
-0.03052185407411333 
-0.0617093917602345 
0 
0.02148880105198099 
0.01916931012557847 
0.07196312035199844 
-0.003676912533644265 
0.02164196911537541 
0.01221180052239651 
0.01292853588280085 
-0.04362627179230043 
0.04337271772010945 
0.04433268322988867 
0 
-0.08473049394453554 
0.05330851306371787 
0.01338728533517264 
-0.03259235958620254 
-0.003453516284615924 
-0.01494098513818092 
0.01068097540592386 
-0.0597673035689606 
0.006833393185089948 
0.01163839954102234 
0 
0.05969423489293112 
0.04618795370437403 
0.008443341349789621 
-0.01739397004654187 
0.002003150193576827 
-0.01723556124033439 
-0.09011083467914247 
0.01657035146222938 
-0.007412413160812422 
0.01410636563764817 
0 
0.003172342582457995 
0.0437939196974737 
0.01530412146623835 
-0.01691531486821212 
0.004328859793199124 
-0.01790229660683347 
0.1347732313135258 
-0.05693651164975836 
-0.05338229420244453 
-0.007658047379958403 
0 
0.06651895869056852 
0.02724612650169259 
0.0055934992576441 
0.002750275150850268 
0.01558585590994989 
0.008343825974620517 
0.03804705539072148 
0.01777060190600113 
-0.1138457621005069 
0.01495729367920831 
0 
-0.01693139207590416 
-0.04770238337246043 
-0.02999035402306597 
-0.008100552552298593 
0.01613781434461482 
0.008204411511068953 
-0.1120375677381811 
0.03877700329345739 
-0.107449753411487 
-0.08363538849058409 
0 
-0.005355352791164079 
0.03619523271312473 
-0.04666047304185216 
-0.04727994118370837 
-0.02517564810282266 
-0.02940458222613849 
-0.06564769079577007 
0.00819780982280437 
-0.02860177493034852 
-0.01489813456964522 
0 
0.001042253189244484 
-0.03290004835469583 
-0.0388408052843698 
-0.01453960879491495 
0.002103760456277529 
-0.008376913611247337 
0.1109770871372194 
0.03364288239736751 
-0.05058760282611923 
-0.08260100829907462 
0 
0.006302642354410328 
-0.01730235272338548 
-0.015025113299409 
0.02779690351938533 
0.02184532216462469 
0.02653733975957794 
-0.08957445967193044 
0.07971936850002999 
-0.06800785129484244 
-0.117826760852705 
0 
0.0590051780987195 
-0.04706204072392665 
-0.06769350586918985 
-0.01927832731506768 
-0.02723344220364084 
-0.02659701364231988 
-0.07671467757309632 
0.004398014765625869 
-0.00763212411248658 
-0.05142945364463392 
0 
0.04876410212042603 
-0.02426953529283796 
-0.06623821261092933 
-0.001561501008633588 
-0.01158816924502865 
-0.01517808620481652 
-0.03900061098747003 
0.08999048985842785 
-0.00720057813313091 
-0.06631331290715207 
0 
0.1364676818711461 
-0.03830838246027829 
-0.07025949795400083 
0.005465500087732331 
0.01739820426705936 
0.02683279352534246 
0.006812030495928657 
-0.02436892292143091 
-0.06665708059689673 
-0.05098989289933902 
0 
0.04460259824186009 
-0.05174823759855531 
0.06910061453158721 
-0.007240583241009142 
-0.001441427063510364 
0.004292926327288008 
0.002933096514193284 
0.001029730800216426 
0.04808749743971788 
0.00804140280017138 
0 
-0.03343170998527439 
-0.02031103830141051 
-0.0032490733340857 
-0.03667717421973739 
-0.02973737209563921 
-0.02827509739364875 
-0.01567159799106877 
0.0229407927919469 
-0.01408870467877834 
0.001479184306363569 
0 
-0.1007081091622084 
-0.008461270290905216 
-0.01653910327947317 
-0.0745389550999493 
-0.05827551298504291 
-0.04587066092229833 
0.01101561084629326 
-0.08302013621426592 
-0.02399253427359578 
0.0866036009366144 
0 
-2.25752390916166e-05 
-0.01535057357841896 
0.0107420957203943 
-0.04626590163645278 
-0.03575026245719411 
-0.008946834042846113 
0.06462005067998301 
-0.1313677652235163 
-0.006926871699648782 
0.01582215329424272 
0 
-0.01959647779235131 
-0.01534937894114958 
0.1230246816921765 
0.001910011695478376 
0.01599909476826254 
-0.003866878619929862 
-0.05521150184942573 
-0.05138611975052296 
-0.01592579393911214 
0.05457681537894565 
0 
0.05337099492352022 
0.05757121728625811 
0.006538377566499925 
0.004767208329806176 
0.02624109350317435 
0.01469016123938481 
-0.01844432675695605 
-0.02726301285856184 
0.08547866222515324 
0.0752940601840324 
0 
-0.09621828438405258 
0.06323350604661379 
0.09617570391861462 
-0.02970270520133369 
-0.00901586794147044 
-0.02409876839685817 
0.02726422399706906 
0.01899795179636603 
0.04716384173616285 
0.06486875006519839 
0 
0.05247322963002461 
0.01644140165082678 
0.03336312964063601 
-0.03880516948874677 
-0.01605925618212271 
-0.0340232626103847 
-0.02173505242679242 
-0.1174401331293751 
-0.001643356053940163 
-0.05838256253447566 
0 
0.006789621102036671 
0.02468392410766283 
0.1407533082957592 
-0.01595522529981918 
0.007536027033935678 
-0.003282914295964112 
0.03175787022361121 
0.0405974274697568 
-0.01222031349337179 
-0.03881453993496271 
0 
0.05433547077059428 
0.001284741753646075 
-0.02198176340186124 
-0.01616698177674052 
0.03102310883944362 
0.03189295799715847 
0.04643531872466304 
0.05750348992153963 
0.0311420311736578 
-0.007357258860427396 
0 
-0.060898514553085 
-0.05306614239265826 
-0.004276708212038426 
-0.03416503175125991 
0.01230938143264367 
0.01836904372567598 
0.02324748903633789 
0.0396843961994029 
0.0157967025595941 
0.02969292389397498 
0 
0.008463261815903787 
0.07035516911686612 
-0.04872507941834751 
-0.04138779528839682 
-0.008409583336918687 
-0.02433450318487545 
0.0002565329544025294 
-0.0330574602842827 
0.007029439598242487 
-0.05872669606171942 
0 
0.009757210469470741 
-0.07961714248475651 
0.08693479299361406 
-0.01063275650850478 
0.003545646901192285 
-0.009244613234505558 
0.1203948102845579 
-0.02423580473366159 
-0.0533327469547999 
0.1068943999092979 
0 
0.009813265673177446 
-0.1056641913965201 
-0.03228133332510858 
-0.009659420199258936 
0.01724400945821216 
0.007924120668143221 
0.03468430119250261 
-0.08382212050704674 
-0.07321535735518206 
0.09291873427275778 
0 
-0.01366929024521169 
-0.04882323684917553 
-0.02403689439321801 
-0.009991370000526413 
0.02496123139615706 
0.02246192936274517 
-0.03522384547352789 
-0.01416270147509982 
0.05442276576047406 
-0.05728966526931249 
0 
-0.01861653563205063 
0.07605264025850547 
0.01715359866209501 
-0.02898862023328747 
0.006352006975632322 
-0.00568391657153937 
-0.000988323537025091 
-0.03390730664419569 
0.0393175582047534 
-0.07214805668657706 
0 
0.01530323300731548 
-0.06227002562296867 
0.01781054961442118 
0.01195636798365916 
0.01029892124277374 
0.008313039995054772 
0.1561842535880995 
-0.06071769923786723 
-0.001965844066842902 
0.07160531862446742 
0 
-0.06106764160733327 
0.1255772786167222 
-0.002012905492678569 
0.003965753929246714 
0.01995935619656785 
0.01456174574268182 
0.1570306424267309 
-0.02137155086244912 
-0.136332124916162 
0.1093462525857102 
0 
-0.03623993159281591 
-0.08929673184644703 
-0.03609976341775264 
0.01082102091339999 
0.03488522535538698 
0.02527068015317729 
0.009838197728910373 
-0.05481187867117834 
-0.1311606488202312 
-0.02932301711820041 
0 
0.07199253124484417 
0.08728988939105675 
-0.02519928704234084 
-0.0139507358336573 
-0.004621811814841389 
-0.01284959404903844 
0.04849631147820731 
0.03682599161804896 
0.06704478671590251 
0.01117094989716403 
0 
0.007050514189601984 
0.04720973345496259 
0.04214557168443632 
-0.030605625938985 
-0.01576365660977958 
-0.03997798734218532 
0.1010419159488747 
0.0564452013302663 
0.06284271834689048 
-0.01183615168740863 
0 
0.07087754244712986 
0.04842850846639077 
0.06502859544541856 
-0.01245594182759673 
0.006613184919566966 
-0.0189708319359229 
-0.08398836398949991 
0.1039034702104079 
0.05379075012301623 
-0.02882975666338691 
0 
0.07042202554011311 
0.09323553495565903 
0.07168016041984218 
-0.02779852056480594 
-0.004434268269085765 
-0.01942083896657387 
0.07308816016132809 
-0.01532466414763553 
0.09178864924172921 
0.09528411449988919 
0 
0.07072472149401206 
-0.05111051906713888 
0.04100037343176541 
-0.005043183953995491 
0.0144667862975018 
-0.01602972982619898 
-0.001633858109332586 
-0.03524211713434482 
0.0650284126654537 
0.03306276025889909 
0 
0.05681525167470408 
0.01012434201481143 
0.02089265327421699 
-0.02443323484275777 
0.006144632398092391 
-0.004529057084493463 
-0.00186963987206727 
0.003067631149206071 
-0.06820826137902471 
-0.07407149032235974 
0 
0.05648319427137313 
0.1073141878154866 
-0.0195963328572418 
-0.01615328421408324 
-0.001068313183508892 
-0.02128763160553151 
-0.04817953443449738 
0.0380816785180686 
-4.63703160276691e-06 
0.002966995607183702 
0 
-0.02861516665987577 
0.05194306415450693 
-0.009173455058888615 
-0.04849901411036259 
-0.01954665472884882 
-0.02963690418182737 
-0.04495833188929926 
0.02560622188075287 
-0.02485345319945537 
0.04038328918527715 
0 
0.07669528879711672 
-0.1046421643928474 
-0.003493717263155568 
0.005669155628638329 
0.02602743861403274 
-0.01177504976577772 
-0.02849900671362046 
-0.1156562660155582 
-0.002553252700218204 
0.07485063432096403 
0 
-0.0128757695927603 
0.1043935203251473 
-0.01315448417195145 
-0.03829004863073196 
0.002708218073213004 
0.00600140599001081 
0.05236102103394188 
0.01549543186024912 
-0.1060920180522452 
-0.02851918541526474 
0 
-0.09286073169250894 
0.02084077473405833 
0.002915290023205452 
-0.07389435832371404 
-0.04077986405216694 
-0.05251159364450516 
-0.01793964878629484 
-0.01462084140064358 
0.07438520569779368 
0.07343592976308171 
0 
-0.01402748468206448 
0.01730390575709112 
0.01782949882018289 
-0.04282162079820478 
-0.008436443399900911 
-0.02014205087505765 
0.0305215204520668 
-0.02032655036031341 
-0.03845766933958581 
0.09163513382437444 
0 
0.02288459702957832 
-0.01748646534454567 
0.006858571423368258 
0.00617761073114506 
0.02254085653556443 
-0.005582701276844235 
-0.1195952848280306 
-0.02269378860414999 
-0.09575231525314015 
-0.068274211848029 
0 
-0.01706415664101153 
0.1052884021218077 
-0.0513217948521857 
-0.06595572732147569 
-0.06177497602783515 
-0.06478765454264408 
-0.172831238584737 
0.09537889719330872 
-0.0249392026659183 
-0.08087301398187205 
0 
0.01961627610964613 
-0.01080525357056167 
-0.01678331955036527 
-0.03921007821091133 
-0.02401706432581511 
-0.02865624331959204 
0.04752800900290767 
0.0670737983725305 
-0.06457850240481416 
-0.05483362587122565 
0 
0.02475876299746865 
-0.04165552312899872 
-0.002523982959580057 
-0.02679750915253905 
-0.01373059750966994 
-0.005819215783887952 
0.006111919655645194 
-0.005496319349690609 
0.01691056621171764 
-0.01186022915853756 
0 
0.03984410887000401 
0.008719243044476204 
-0.0251938445568507 
-0.008683699064006574 
0.001361709726960644 
-0.00916666485308028 
0.02361530151173486 
-0.002415211501543135 
0.02527755417308592 
-0.04363488236635248 
0 
-0.009361353551148826 
-0.04701533108309598 
0.06299548067027837 
0.03796103879624496 
0.0349523602327563 
0.03678157842274184 
0.210789358247622 
-0.05459244900011363 
-0.0002535127215872744 
-0.001608521529827959 
0 
-0.009234418827032718 
-0.01488259323307412 
-0.03601477121087679 
0.02646837345919708 
0.02388795532149603 
0.01755150877467905 
-0.08419925782072607 
0.08570019754385051 
-0.07577430658199924 
-0.06598139161806561 
0 
0.08237505205621401 
-0.07286545568866856 
-0.06689827271405632 
0.01731639657384634 
0.008256084035659896 
-0.001065524109248925 
-0.02138103082783964 
0.1093965562875522 
-0.08038833206159589 
-0.1233838125434488 
0 
0.06623302999112728 
-0.03488901502950976 
-0.04500256617264972 
0.003890723550602992 
-0.005617125015631826 
-0.00528110890949855 
-0.04414786742401223 
-0.09947796550500128 
0.03198176396680573 
-0.02321670343749594 
0 
0.03674898788039922 
-0.00800300782174628 
0.0667912875576091 
0.0210017609114817 
0.01598095949209608 
0.03249868029269644 
0.002470864219734024 
0.01057693237176444 
-0.03690392966341089 
0.005320888317655495 
0 
0.03804126498833381 
0.02788857665782055 
-0.02576663248384806 
0.01684633368672536 
0.008244755348758345 
0.01848061221502244 
-0.07636833365860252 
0.125697620178121 
-0.09711458602527051 
-0.0595252058771994 
0 
-0.05452786329441963 
-0.00746094046181309 
-0.08766124464362886 
-0.06515962362312894 
-0.06167731769388906 
-0.05193579847420303 
-0.09109812733559887 
0.04885714395558248 
0.005764708138213232 
-0.1398555215986469 
0 
0.1112184970830915 
0.01083875922846327 
-0.03657201729131158 
-0.04502677554712126 
-0.05403456033632923 
-0.04868878408017429 
0.03469981926149711 
0.005719263441747805 
-0.03552562035451855 
-0.08653469219103686 
0 
0.09397486138452661 
-0.07328226509586779 
0.04877673179330421 
0.00976115084388735 
0.01740018850719237 
0.03167379304113167 
-0.02020286007563911 
0.04170905743420359 
-0.02119862570009259 
-0.05634089261911212 
0 
0.09539076505704179 
0.0009639605317701189 
-0.03136751126051898 
-0.01602307107726539 
-0.02085242562959464 
-0.01299414403806082 
-0.001263194006462171 
0.07644200912472257 
0.08142712249631139 
0.01357510912119337 
0 
-0.04007713273429778 
-0.09443401839783998 
-0.01727827987262811 
-0.03720839008825984 
-0.03338413166471318 
-0.02864656040686552 
-0.01520323876249477 
0.1285398834839124 
-0.01882388748808311 
-0.06674300392748117 
0 
-0.05320334469029907 
0.01284928687497626 
-0.003278450141276939 
-0.04435898378844079 
-0.03191714905605882 
-0.02228728177947879 
0.01466531062947565 
-0.04203944467904974 
-0.06496030535184275 
-0.05193655069627465 
0 
-0.01192248184324711 
-0.03368016718344745 
0.1399429538329744 
-0.00119441712659734 
0.01599782254688238 
0.02007030211370807 
-0.06282771588983192 
0.02055374841461627 
-0.0154496045891116 
0.08586854175862166 
0 
0.07813455476406532 
-0.01383014875271215 
-0.01424670887615868 
-0.02572471088612152 
-0.01870129936062697 
-0.01860335241333286 
-0.02001308675600041 
0.001589221213694976 
-0.02455766030799957 
-0.0317298868917761 
0 
0.1059759219603062 
0.006421050495298702 
0.003951788787347269 
-0.03806424760300171 
-0.03238076885136046 
-0.03530175901041492 
0.008665390557149405 
-0.08527319967144993 
-0.006103346121802085 
0.007957416068249037 
0 
0.04518538622031779 
0.01229951083268396 
-0.000162739775392232 
-0.03974365990687975 
-0.03318246697931908 
-0.03570604575454026 
-0.06057786841219279 
-0.04491837452409069 
0.07098604693348187 
-0.003026636618295645 
0 
0.04233159175310925 
-0.02007575016638766 
-0.06225118218289656 
-0.009086608692919825 
-0.02814584225408305 
-0.03225639283238507 
-0.01248017192554983 
0.02036698753882817 
-0.135743962432118 
-0.04580047963630592 
0 
0.08801679937655328 
-0.04435166565087619 
-0.06949765210705289 
0.01953601823830292 
0.01176675737560928 
0.01127850788659788 
-0.006856162191576049 
0.107649668063964 
0.04485154940134402 
-0.1009983496392816 
0 
0.1411268316619124 
-0.02869118860455516 
-0.05753224647210956 
0.003393803108479301 
0.00559257509401362 
0.02220361439021517 
0.02954473540517368 
-0.01256453463629372 
-0.02049069439723484 
0.006519116001524557 
0 
0.01289080821561218 
0.004987529146085821 
-0.007306208531912096 
0.006837306778706897 
0.02596599233460968 
0.03278507305271257 
-0.04988470118227618 
0.08904220157232623 
-0.001954338588127671 
-0.04900064833911497 
0 
0.03784488632824252 
0.01055211806312657 
-0.04394764568493733 
-0.01445210097716093 
-0.03172499672274132 
-0.03557240532060676 
-0.03062826877169251 
-0.07176092091362483 
-0.09383997197515587 
0.03544050732265649 
0 
0.1457928099115162 
-0.05290509968359883 
-0.05019386637823152 
-0.0004221891532100029 
0.007906103019608099 
0.004303183505447757 
0.03158504885613789 
-0.009999320410066164 
0.01622666259228773 
-0.07089530673956723 
0 
0.1554519906587136 
-0.02933983765212649 
-0.0224015181815454 
0.02005929465853968 
0.03517106221062574 
0.03453970155499339 
-0.02352821858158322 
0.009390294943263364 
-0.03164448417906507 
0.09281378573683213 
0 
-0.07231471554176386 
0.01432977790830835 
0.07040557915171575 
-0.01298009156847977 
0.004445830223841829 
0.01892126500062275 
0.007537355522167196 
0.05346212215928885 
-0.02618859509326617 
-0.03544993619806597 
0 
-0.06470534121937262 
-0.01883982624473597 
-0.007051466742665215 
-0.08333746640878748 
-0.06504482693252502 
-0.05562959780034116 
-0.02915766638485367 
0.02191655051404753 
-0.06332572830196256 
-0.04989116640799011 
0 
-0.02359857656682974 
-0.03916509139325263 
0.004760185225276524 
-0.07517293099249236 
-0.0487777526169975 
-0.0352086519309447 
0.003594274232622222 
0.09208708373213184 
0.01815357182556524 
-0.07334393542607243 
0 
-0.002132879836990011 
-0.01802268294242661 
0.02168453530107519 
-0.05917185368376002 
-0.04202232579492426 
-0.01703638640315618 
0.008593958867989379 
-0.05319191230029666 
-0.02252947545599197 
0.04679023457000757 
0 
0.04298309190788111 
-0.05550097538150719 
0.01504784900736024 
-0.02910037857566073 
-0.02223733795314487 
0.005606046220840339 
-0.02011111211063015 
-0.1154110469964313 
0.003839875464922437 
0.08490011100526718 
0 
-0.05288720258676098 
0.120021929231783 
0.02084528976463118 
-0.06354439258872215 
-0.05287809306207648 
-0.04889598078719749 
-0.05359981347348829 
0.04596836728098697 
0.01807987393969865 
0.05445467562833314 
0 
-0.0278568365153938 
0.01205634102472711 
0.02825105983660644 
-0.08895988894898392 
-0.07439164582102308 
-0.05081378913209379 
0.0814860278925329 
-0.01822620847458677 
0.004752068199883283 
0.04948276491138288 
0 
0.04745700243699045 
0.04271840784146162 
0.02176923298510917 
-0.07698238985472917 
-0.06328545671525608 
-0.03063230436752727 
-0.0159219470950391 
-0.01116527204854056 
-0.05785002753752779 
0.125937793710896 
0 
-0.01386900650347495 
0.06835059095612228 
0.06371259911082454 
-0.06833217446650919 
-0.05523784128156532 
-0.0208219162437215 
